digraph Tree {
node [shape=box] ;
0 [label="Agency_Code <= 0.5\ngini = 0.42\nsamples = 2100\nvalue = [1471, 629]"] ;
1 [label="Sales <= 57.675\ngini = 0.484\nsamples = 670\nvalue = [276, 394]"] ;
0 -> 1 [labeldistance=2.5, labelangle=45, headlabel="True"] ;
2 [label="Sales <= 15.5\ngini = 0.496\nsamples = 377\nvalue = [206, 171]"] ;
1 -> 2 ;
3 [label="Sales <= 4.565\ngini = 0.245\nsamples = 70\nvalue = [60, 10]"] ;
2 -> 3 ;
4 [label="gini = 0.0\nsamples = 24\nvalue = [24, 0]"] ;
3 -> 4 ;
5 [label="Commision <= 3.775\ngini = 0.34\nsamples = 46\nvalue = [36, 10]"] ;
3 -> 5 ;
6 [label="Age <= 49.0\ngini = 0.453\nsamples = 26\nvalue = [17, 9]"] ;
5 -> 6 ;
7 [label="Duration <= 4.0\ngini = 0.483\nsamples = 22\nvalue = [13, 9]"] ;
6 -> 7 ;
8 [label="Commision <= 2.33\ngini = 0.219\nsamples = 8\nvalue = [7, 1]"] ;
7 -> 8 ;
9 [label="Sales <= 6.855\ngini = 0.444\nsamples = 3\nvalue = [2, 1]"] ;
8 -> 9 ;
10 [label="gini = 0.0\nsamples = 2\nvalue = [2, 0]"] ;
9 -> 10 ;
11 [label="gini = 0.0\nsamples = 1\nvalue = [0, 1]"] ;
9 -> 11 ;
12 [label="gini = 0.0\nsamples = 5\nvalue = [5, 0]"] ;
8 -> 12 ;
13 [label="Duration <= 69.0\ngini = 0.49\nsamples = 14\nvalue = [6, 8]"] ;
7 -> 13 ;
14 [label="Age <= 34.0\ngini = 0.397\nsamples = 11\nvalue = [3, 8]"] ;
13 -> 14 ;
15 [label="Age <= 22.5\ngini = 0.5\nsamples = 6\nvalue = [3, 3]"] ;
14 -> 15 ;
16 [label="gini = 0.0\nsamples = 1\nvalue = [0, 1]"] ;
15 -> 16 ;
17 [label="Duration <= 9.5\ngini = 0.48\nsamples = 5\nvalue = [3, 2]"] ;
15 -> 17 ;
18 [label="Age <= 29.5\ngini = 0.444\nsamples = 3\nvalue = [1, 2]"] ;
17 -> 18 ;
19 [label="gini = 0.0\nsamples = 2\nvalue = [0, 2]"] ;
18 -> 19 ;
20 [label="gini = 0.0\nsamples = 1\nvalue = [1, 0]"] ;
18 -> 20 ;
21 [label="gini = 0.0\nsamples = 2\nvalue = [2, 0]"] ;
17 -> 21 ;
22 [label="gini = 0.0\nsamples = 5\nvalue = [0, 5]"] ;
14 -> 22 ;
23 [label="gini = 0.0\nsamples = 3\nvalue = [3, 0]"] ;
13 -> 23 ;
24 [label="gini = 0.0\nsamples = 4\nvalue = [4, 0]"] ;
6 -> 24 ;
25 [label="Age <= 67.0\ngini = 0.095\nsamples = 20\nvalue = [19, 1]"] ;
5 -> 25 ;
26 [label="gini = 0.0\nsamples = 18\nvalue = [18, 0]"] ;
25 -> 26 ;
27 [label="Duration <= 9.5\ngini = 0.5\nsamples = 2\nvalue = [1, 1]"] ;
25 -> 27 ;
28 [label="gini = 0.0\nsamples = 1\nvalue = [0, 1]"] ;
27 -> 28 ;
29 [label="gini = 0.0\nsamples = 1\nvalue = [1, 0]"] ;
27 -> 29 ;
30 [label="Commision <= 14.145\ngini = 0.499\nsamples = 307\nvalue = [146, 161]"] ;
2 -> 30 ;
31 [label="Duration <= 7.5\ngini = 0.495\nsamples = 292\nvalue = [132, 160]"] ;
30 -> 31 ;
32 [label="Age <= 36.5\ngini = 0.48\nsamples = 60\nvalue = [36, 24]"] ;
31 -> 32 ;
33 [label="Sales <= 26.0\ngini = 0.394\nsamples = 37\nvalue = [27, 10]"] ;
32 -> 33 ;
34 [label="Duration <= 4.5\ngini = 0.48\nsamples = 25\nvalue = [15, 10]"] ;
33 -> 34 ;
35 [label="gini = 0.0\nsamples = 5\nvalue = [5, 0]"] ;
34 -> 35 ;
36 [label="Product Name <= 2.0\ngini = 0.5\nsamples = 20\nvalue = [10, 10]"] ;
34 -> 36 ;
37 [label="Duration <= 6.5\ngini = 0.484\nsamples = 17\nvalue = [10, 7]"] ;
36 -> 37 ;
38 [label="Age <= 25.5\ngini = 0.497\nsamples = 13\nvalue = [6, 7]"] ;
37 -> 38 ;
39 [label="gini = 0.0\nsamples = 1\nvalue = [1, 0]"] ;
38 -> 39 ;
40 [label="Age <= 27.5\ngini = 0.486\nsamples = 12\nvalue = [5, 7]"] ;
38 -> 40 ;
41 [label="gini = 0.0\nsamples = 2\nvalue = [0, 2]"] ;
40 -> 41 ;
42 [label="Commision <= 4.195\ngini = 0.5\nsamples = 10\nvalue = [5, 5]"] ;
40 -> 42 ;
43 [label="Age <= 29.5\ngini = 0.375\nsamples = 4\nvalue = [3, 1]"] ;
42 -> 43 ;
44 [label="Duration <= 5.5\ngini = 0.5\nsamples = 2\nvalue = [1, 1]"] ;
43 -> 44 ;
45 [label="gini = 0.0\nsamples = 1\nvalue = [0, 1]"] ;
44 -> 45 ;
46 [label="gini = 0.0\nsamples = 1\nvalue = [1, 0]"] ;
44 -> 46 ;
47 [label="gini = 0.0\nsamples = 2\nvalue = [2, 0]"] ;
43 -> 47 ;
48 [label="Age <= 29.5\ngini = 0.444\nsamples = 6\nvalue = [2, 4]"] ;
42 -> 48 ;
49 [label="gini = 0.0\nsamples = 1\nvalue = [1, 0]"] ;
48 -> 49 ;
50 [label="Age <= 33.0\ngini = 0.32\nsamples = 5\nvalue = [1, 4]"] ;
48 -> 50 ;
51 [label="gini = 0.0\nsamples = 4\nvalue = [0, 4]"] ;
50 -> 51 ;
52 [label="gini = 0.0\nsamples = 1\nvalue = [1, 0]"] ;
50 -> 52 ;
53 [label="gini = 0.0\nsamples = 4\nvalue = [4, 0]"] ;
37 -> 53 ;
54 [label="gini = 0.0\nsamples = 3\nvalue = [0, 3]"] ;
36 -> 54 ;
55 [label="gini = 0.0\nsamples = 12\nvalue = [12, 0]"] ;
33 -> 55 ;
56 [label="Age <= 44.5\ngini = 0.476\nsamples = 23\nvalue = [9, 14]"] ;
32 -> 56 ;
57 [label="Commision <= 7.315\ngini = 0.18\nsamples = 10\nvalue = [1, 9]"] ;
56 -> 57 ;
58 [label="gini = 0.0\nsamples = 9\nvalue = [0, 9]"] ;
57 -> 58 ;
59 [label="gini = 0.0\nsamples = 1\nvalue = [1, 0]"] ;
57 -> 59 ;
60 [label="Product Name <= 3.5\ngini = 0.473\nsamples = 13\nvalue = [8, 5]"] ;
56 -> 60 ;
61 [label="Duration <= 5.0\ngini = 0.444\nsamples = 6\nvalue = [2, 4]"] ;
60 -> 61 ;
62 [label="Duration <= 2.0\ngini = 0.444\nsamples = 3\nvalue = [2, 1]"] ;
61 -> 62 ;
63 [label="gini = 0.0\nsamples = 1\nvalue = [0, 1]"] ;
62 -> 63 ;
64 [label="gini = 0.0\nsamples = 2\nvalue = [2, 0]"] ;
62 -> 64 ;
65 [label="gini = 0.0\nsamples = 3\nvalue = [0, 3]"] ;
61 -> 65 ;
66 [label="Age <= 54.5\ngini = 0.245\nsamples = 7\nvalue = [6, 1]"] ;
60 -> 66 ;
67 [label="gini = 0.0\nsamples = 5\nvalue = [5, 0]"] ;
66 -> 67 ;
68 [label="Sales <= 25.125\ngini = 0.5\nsamples = 2\nvalue = [1, 1]"] ;
66 -> 68 ;
69 [label="gini = 0.0\nsamples = 1\nvalue = [0, 1]"] ;
68 -> 69 ;
70 [label="gini = 0.0\nsamples = 1\nvalue = [1, 0]"] ;
68 -> 70 ;
71 [label="Duration <= 12.5\ngini = 0.485\nsamples = 232\nvalue = [96, 136]"] ;
31 -> 71 ;
72 [label="Age <= 46.5\ngini = 0.43\nsamples = 64\nvalue = [20, 44]"] ;
71 -> 72 ;
73 [label="Sales <= 16.5\ngini = 0.388\nsamples = 57\nvalue = [15, 42]"] ;
72 -> 73 ;
74 [label="gini = 0.0\nsamples = 2\nvalue = [2, 0]"] ;
73 -> 74 ;
75 [label="Sales <= 50.75\ngini = 0.361\nsamples = 55\nvalue = [13, 42]"] ;
73 -> 75 ;
76 [label="Commision <= 5.58\ngini = 0.329\nsamples = 53\nvalue = [11, 42]"] ;
75 -> 76 ;
77 [label="Commision <= 4.565\ngini = 0.432\nsamples = 19\nvalue = [6, 13]"] ;
76 -> 77 ;
78 [label="gini = 0.0\nsamples = 5\nvalue = [0, 5]"] ;
77 -> 78 ;
79 [label="Age <= 21.5\ngini = 0.49\nsamples = 14\nvalue = [6, 8]"] ;
77 -> 79 ;
80 [label="gini = 0.0\nsamples = 2\nvalue = [0, 2]"] ;
79 -> 80 ;
81 [label="Age <= 27.5\ngini = 0.5\nsamples = 12\nvalue = [6, 6]"] ;
79 -> 81 ;
82 [label="gini = 0.0\nsamples = 2\nvalue = [2, 0]"] ;
81 -> 82 ;
83 [label="Age <= 29.5\ngini = 0.48\nsamples = 10\nvalue = [4, 6]"] ;
81 -> 83 ;
84 [label="gini = 0.0\nsamples = 3\nvalue = [0, 3]"] ;
83 -> 84 ;
85 [label="Age <= 41.5\ngini = 0.49\nsamples = 7\nvalue = [4, 3]"] ;
83 -> 85 ;
86 [label="Commision <= 5.39\ngini = 0.444\nsamples = 6\nvalue = [4, 2]"] ;
85 -> 86 ;
87 [label="Duration <= 11.5\ngini = 0.48\nsamples = 5\nvalue = [3, 2]"] ;
86 -> 87 ;
88 [label="Commision <= 5.125\ngini = 0.375\nsamples = 4\nvalue = [3, 1]"] ;
87 -> 88 ;
89 [label="gini = 0.0\nsamples = 2\nvalue = [2, 0]"] ;
88 -> 89 ;
90 [label="Age <= 37.5\ngini = 0.5\nsamples = 2\nvalue = [1, 1]"] ;
88 -> 90 ;
91 [label="gini = 0.0\nsamples = 1\nvalue = [1, 0]"] ;
90 -> 91 ;
92 [label="gini = 0.0\nsamples = 1\nvalue = [0, 1]"] ;
90 -> 92 ;
93 [label="gini = 0.0\nsamples = 1\nvalue = [0, 1]"] ;
87 -> 93 ;
94 [label="gini = 0.0\nsamples = 1\nvalue = [1, 0]"] ;
86 -> 94 ;
95 [label="gini = 0.0\nsamples = 1\nvalue = [0, 1]"] ;
85 -> 95 ;
96 [label="Commision <= 7.05\ngini = 0.251\nsamples = 34\nvalue = [5, 29]"] ;
76 -> 96 ;
97 [label="gini = 0.0\nsamples = 15\nvalue = [0, 15]"] ;
96 -> 97 ;
98 [label="Commision <= 7.365\ngini = 0.388\nsamples = 19\nvalue = [5, 14]"] ;
96 -> 98 ;
99 [label="gini = 0.0\nsamples = 1\nvalue = [1, 0]"] ;
98 -> 99 ;
100 [label="Product Name <= 1.5\ngini = 0.346\nsamples = 18\nvalue = [4, 14]"] ;
98 -> 100 ;
101 [label="Sales <= 30.225\ngini = 0.5\nsamples = 6\nvalue = [3, 3]"] ;
100 -> 101 ;
102 [label="gini = 0.0\nsamples = 2\nvalue = [2, 0]"] ;
101 -> 102 ;
103 [label="Duration <= 11.5\ngini = 0.375\nsamples = 4\nvalue = [1, 3]"] ;
101 -> 103 ;
104 [label="Age <= 31.5\ngini = 0.5\nsamples = 2\nvalue = [1, 1]"] ;
103 -> 104 ;
105 [label="gini = 0.0\nsamples = 1\nvalue = [0, 1]"] ;
104 -> 105 ;
106 [label="gini = 0.0\nsamples = 1\nvalue = [1, 0]"] ;
104 -> 106 ;
107 [label="gini = 0.0\nsamples = 2\nvalue = [0, 2]"] ;
103 -> 107 ;
108 [label="Duration <= 9.5\ngini = 0.153\nsamples = 12\nvalue = [1, 11]"] ;
100 -> 108 ;
109 [label="Duration <= 8.5\ngini = 0.278\nsamples = 6\nvalue = [1, 5]"] ;
108 -> 109 ;
110 [label="gini = 0.0\nsamples = 3\nvalue = [0, 3]"] ;
109 -> 110 ;
111 [label="Age <= 30.5\ngini = 0.444\nsamples = 3\nvalue = [1, 2]"] ;
109 -> 111 ;
112 [label="gini = 0.0\nsamples = 2\nvalue = [0, 2]"] ;
111 -> 112 ;
113 [label="gini = 0.0\nsamples = 1\nvalue = [1, 0]"] ;
111 -> 113 ;
114 [label="gini = 0.0\nsamples = 6\nvalue = [0, 6]"] ;
108 -> 114 ;
115 [label="gini = 0.0\nsamples = 2\nvalue = [2, 0]"] ;
75 -> 115 ;
116 [label="Sales <= 17.75\ngini = 0.408\nsamples = 7\nvalue = [5, 2]"] ;
72 -> 116 ;
117 [label="gini = 0.0\nsamples = 1\nvalue = [0, 1]"] ;
116 -> 117 ;
118 [label="Age <= 62.5\ngini = 0.278\nsamples = 6\nvalue = [5, 1]"] ;
116 -> 118 ;
119 [label="gini = 0.0\nsamples = 5\nvalue = [5, 0]"] ;
118 -> 119 ;
120 [label="gini = 0.0\nsamples = 1\nvalue = [0, 1]"] ;
118 -> 120 ;
121 [label="Sales <= 32.25\ngini = 0.495\nsamples = 168\nvalue = [76, 92]"] ;
71 -> 121 ;
122 [label="Commision <= 7.425\ngini = 0.497\nsamples = 76\nvalue = [41, 35]"] ;
121 -> 122 ;
123 [label="Age <= 27.0\ngini = 0.49\nsamples = 58\nvalue = [25, 33]"] ;
122 -> 123 ;
124 [label="Age <= 23.0\ngini = 0.444\nsamples = 15\nvalue = [10, 5]"] ;
123 -> 124 ;
125 [label="Age <= 20.0\ngini = 0.375\nsamples = 4\nvalue = [1, 3]"] ;
124 -> 125 ;
126 [label="gini = 0.0\nsamples = 1\nvalue = [1, 0]"] ;
125 -> 126 ;
127 [label="gini = 0.0\nsamples = 3\nvalue = [0, 3]"] ;
125 -> 127 ;
128 [label="Commision <= 5.64\ngini = 0.298\nsamples = 11\nvalue = [9, 2]"] ;
124 -> 128 ;
129 [label="Sales <= 21.55\ngini = 0.48\nsamples = 5\nvalue = [3, 2]"] ;
128 -> 129 ;
130 [label="gini = 0.0\nsamples = 3\nvalue = [3, 0]"] ;
129 -> 130 ;
131 [label="gini = 0.0\nsamples = 2\nvalue = [0, 2]"] ;
129 -> 131 ;
132 [label="gini = 0.0\nsamples = 6\nvalue = [6, 0]"] ;
128 -> 132 ;
133 [label="Duration <= 60.0\ngini = 0.454\nsamples = 43\nvalue = [15, 28]"] ;
123 -> 133 ;
134 [label="Duration <= 13.5\ngini = 0.426\nsamples = 39\nvalue = [12, 27]"] ;
133 -> 134 ;
135 [label="Age <= 30.5\ngini = 0.48\nsamples = 5\nvalue = [3, 2]"] ;
134 -> 135 ;
136 [label="gini = 0.0\nsamples = 2\nvalue = [0, 2]"] ;
135 -> 136 ;
137 [label="gini = 0.0\nsamples = 3\nvalue = [3, 0]"] ;
135 -> 137 ;
138 [label="Commision <= 5.99\ngini = 0.389\nsamples = 34\nvalue = [9, 25]"] ;
134 -> 138 ;
139 [label="Age <= 39.5\ngini = 0.469\nsamples = 24\nvalue = [9, 15]"] ;
138 -> 139 ;
140 [label="Duration <= 19.5\ngini = 0.401\nsamples = 18\nvalue = [5, 13]"] ;
139 -> 140 ;
141 [label="Commision <= 4.815\ngini = 0.5\nsamples = 6\nvalue = [3, 3]"] ;
140 -> 141 ;
142 [label="gini = 0.0\nsamples = 2\nvalue = [2, 0]"] ;
141 -> 142 ;
143 [label="Commision <= 5.755\ngini = 0.375\nsamples = 4\nvalue = [1, 3]"] ;
141 -> 143 ;
144 [label="gini = 0.0\nsamples = 3\nvalue = [0, 3]"] ;
143 -> 144 ;
145 [label="gini = 0.0\nsamples = 1\nvalue = [1, 0]"] ;
143 -> 145 ;
146 [label="Age <= 29.0\ngini = 0.278\nsamples = 12\nvalue = [2, 10]"] ;
140 -> 146 ;
147 [label="Duration <= 34.5\ngini = 0.48\nsamples = 5\nvalue = [2, 3]"] ;
146 -> 147 ;
148 [label="Duration <= 24.0\ngini = 0.375\nsamples = 4\nvalue = [1, 3]"] ;
147 -> 148 ;
149 [label="Sales <= 21.05\ngini = 0.5\nsamples = 2\nvalue = [1, 1]"] ;
148 -> 149 ;
150 [label="gini = 0.0\nsamples = 1\nvalue = [1, 0]"] ;
149 -> 150 ;
151 [label="gini = 0.0\nsamples = 1\nvalue = [0, 1]"] ;
149 -> 151 ;
152 [label="gini = 0.0\nsamples = 2\nvalue = [0, 2]"] ;
148 -> 152 ;
153 [label="gini = 0.0\nsamples = 1\nvalue = [1, 0]"] ;
147 -> 153 ;
154 [label="gini = 0.0\nsamples = 7\nvalue = [0, 7]"] ;
146 -> 154 ;
155 [label="Age <= 56.0\ngini = 0.444\nsamples = 6\nvalue = [4, 2]"] ;
139 -> 155 ;
156 [label="Sales <= 16.5\ngini = 0.32\nsamples = 5\nvalue = [4, 1]"] ;
155 -> 156 ;
157 [label="Duration <= 19.5\ngini = 0.5\nsamples = 2\nvalue = [1, 1]"] ;
156 -> 157 ;
158 [label="gini = 0.0\nsamples = 1\nvalue = [0, 1]"] ;
157 -> 158 ;
159 [label="gini = 0.0\nsamples = 1\nvalue = [1, 0]"] ;
157 -> 159 ;
160 [label="gini = 0.0\nsamples = 3\nvalue = [3, 0]"] ;
156 -> 160 ;
161 [label="gini = 0.0\nsamples = 1\nvalue = [0, 1]"] ;
155 -> 161 ;
162 [label="gini = 0.0\nsamples = 10\nvalue = [0, 10]"] ;
138 -> 162 ;
163 [label="Age <= 33.0\ngini = 0.375\nsamples = 4\nvalue = [3, 1]"] ;
133 -> 163 ;
164 [label="gini = 0.0\nsamples = 1\nvalue = [0, 1]"] ;
163 -> 164 ;
165 [label="gini = 0.0\nsamples = 3\nvalue = [3, 0]"] ;
163 -> 165 ;
166 [label="Age <= 22.5\ngini = 0.198\nsamples = 18\nvalue = [16, 2]"] ;
122 -> 166 ;
167 [label="Duration <= 26.0\ngini = 0.5\nsamples = 2\nvalue = [1, 1]"] ;
166 -> 167 ;
168 [label="gini = 0.0\nsamples = 1\nvalue = [1, 0]"] ;
167 -> 168 ;
169 [label="gini = 0.0\nsamples = 1\nvalue = [0, 1]"] ;
167 -> 169 ;
170 [label="Commision <= 7.655\ngini = 0.117\nsamples = 16\nvalue = [15, 1]"] ;
166 -> 170 ;
171 [label="Age <= 31.0\ngini = 0.32\nsamples = 5\nvalue = [4, 1]"] ;
170 -> 171 ;
172 [label="gini = 0.0\nsamples = 3\nvalue = [3, 0]"] ;
171 -> 172 ;
173 [label="Duration <= 83.5\ngini = 0.5\nsamples = 2\nvalue = [1, 1]"] ;
171 -> 173 ;
174 [label="gini = 0.0\nsamples = 1\nvalue = [0, 1]"] ;
173 -> 174 ;
175 [label="gini = 0.0\nsamples = 1\nvalue = [1, 0]"] ;
173 -> 175 ;
176 [label="gini = 0.0\nsamples = 11\nvalue = [11, 0]"] ;
170 -> 176 ;
177 [label="Duration <= 129.0\ngini = 0.471\nsamples = 92\nvalue = [35, 57]"] ;
121 -> 177 ;
178 [label="Duration <= 86.0\ngini = 0.463\nsamples = 88\nvalue = [32, 56]"] ;
177 -> 178 ;
179 [label="Duration <= 72.0\ngini = 0.476\nsamples = 82\nvalue = [32, 50]"] ;
178 -> 179 ;
180 [label="Age <= 34.5\ngini = 0.469\nsamples = 80\nvalue = [30, 50]"] ;
179 -> 180 ;
181 [label="Commision <= 11.87\ngini = 0.418\nsamples = 47\nvalue = [14, 33]"] ;
180 -> 181 ;
182 [label="Sales <= 34.0\ngini = 0.475\nsamples = 31\nvalue = [12, 19]"] ;
181 -> 182 ;
183 [label="Age <= 30.5\ngini = 0.219\nsamples = 8\nvalue = [1, 7]"] ;
182 -> 183 ;
184 [label="gini = 0.0\nsamples = 5\nvalue = [0, 5]"] ;
183 -> 184 ;
185 [label="Duration <= 26.0\ngini = 0.444\nsamples = 3\nvalue = [1, 2]"] ;
183 -> 185 ;
186 [label="gini = 0.0\nsamples = 2\nvalue = [0, 2]"] ;
185 -> 186 ;
187 [label="gini = 0.0\nsamples = 1\nvalue = [1, 0]"] ;
185 -> 187 ;
188 [label="Duration <= 15.5\ngini = 0.499\nsamples = 23\nvalue = [11, 12]"] ;
182 -> 188 ;
189 [label="Age <= 25.5\ngini = 0.375\nsamples = 8\nvalue = [6, 2]"] ;
188 -> 189 ;
190 [label="gini = 0.0\nsamples = 5\nvalue = [5, 0]"] ;
189 -> 190 ;
191 [label="Age <= 28.0\ngini = 0.444\nsamples = 3\nvalue = [1, 2]"] ;
189 -> 191 ;
192 [label="gini = 0.0\nsamples = 2\nvalue = [0, 2]"] ;
191 -> 192 ;
193 [label="gini = 0.0\nsamples = 1\nvalue = [1, 0]"] ;
191 -> 193 ;
194 [label="Duration <= 19.5\ngini = 0.444\nsamples = 15\nvalue = [5, 10]"] ;
188 -> 194 ;
195 [label="gini = 0.0\nsamples = 4\nvalue = [0, 4]"] ;
194 -> 195 ;
196 [label="Duration <= 21.5\ngini = 0.496\nsamples = 11\nvalue = [5, 6]"] ;
194 -> 196 ;
197 [label="gini = 0.0\nsamples = 1\nvalue = [1, 0]"] ;
196 -> 197 ;
198 [label="Duration <= 39.0\ngini = 0.48\nsamples = 10\nvalue = [4, 6]"] ;
196 -> 198 ;
199 [label="Commision <= 10.94\ngini = 0.32\nsamples = 5\nvalue = [1, 4]"] ;
198 -> 199 ;
200 [label="gini = 0.0\nsamples = 4\nvalue = [0, 4]"] ;
199 -> 200 ;
201 [label="gini = 0.0\nsamples = 1\nvalue = [1, 0]"] ;
199 -> 201 ;
202 [label="Product Name <= 2.0\ngini = 0.48\nsamples = 5\nvalue = [3, 2]"] ;
198 -> 202 ;
203 [label="Sales <= 37.25\ngini = 0.444\nsamples = 3\nvalue = [1, 2]"] ;
202 -> 203 ;
204 [label="gini = 0.0\nsamples = 1\nvalue = [1, 0]"] ;
203 -> 204 ;
205 [label="gini = 0.0\nsamples = 2\nvalue = [0, 2]"] ;
203 -> 205 ;
206 [label="gini = 0.0\nsamples = 2\nvalue = [2, 0]"] ;
202 -> 206 ;
207 [label="Duration <= 27.5\ngini = 0.219\nsamples = 16\nvalue = [2, 14]"] ;
181 -> 207 ;
208 [label="gini = 0.0\nsamples = 8\nvalue = [0, 8]"] ;
207 -> 208 ;
209 [label="Age <= 29.5\ngini = 0.375\nsamples = 8\nvalue = [2, 6]"] ;
207 -> 209 ;
210 [label="Commision <= 13.065\ngini = 0.245\nsamples = 7\nvalue = [1, 6]"] ;
209 -> 210 ;
211 [label="gini = 0.0\nsamples = 3\nvalue = [0, 3]"] ;
210 -> 211 ;
212 [label="Duration <= 34.0\ngini = 0.375\nsamples = 4\nvalue = [1, 3]"] ;
210 -> 212 ;
213 [label="gini = 0.0\nsamples = 2\nvalue = [0, 2]"] ;
212 -> 213 ;
214 [label="Duration <= 38.5\ngini = 0.5\nsamples = 2\nvalue = [1, 1]"] ;
212 -> 214 ;
215 [label="gini = 0.0\nsamples = 1\nvalue = [1, 0]"] ;
214 -> 215 ;
216 [label="gini = 0.0\nsamples = 1\nvalue = [0, 1]"] ;
214 -> 216 ;
217 [label="gini = 0.0\nsamples = 1\nvalue = [1, 0]"] ;
209 -> 217 ;
218 [label="Duration <= 18.5\ngini = 0.5\nsamples = 33\nvalue = [16, 17]"] ;
180 -> 218 ;
219 [label="Duration <= 16.5\ngini = 0.391\nsamples = 15\nvalue = [11, 4]"] ;
218 -> 219 ;
220 [label="Sales <= 50.65\ngini = 0.463\nsamples = 11\nvalue = [7, 4]"] ;
219 -> 220 ;
221 [label="Sales <= 44.5\ngini = 0.5\nsamples = 8\nvalue = [4, 4]"] ;
220 -> 221 ;
222 [label="Age <= 52.5\ngini = 0.32\nsamples = 5\nvalue = [4, 1]"] ;
221 -> 222 ;
223 [label="gini = 0.0\nsamples = 4\nvalue = [4, 0]"] ;
222 -> 223 ;
224 [label="gini = 0.0\nsamples = 1\nvalue = [0, 1]"] ;
222 -> 224 ;
225 [label="gini = 0.0\nsamples = 3\nvalue = [0, 3]"] ;
221 -> 225 ;
226 [label="gini = 0.0\nsamples = 3\nvalue = [3, 0]"] ;
220 -> 226 ;
227 [label="gini = 0.0\nsamples = 4\nvalue = [4, 0]"] ;
219 -> 227 ;
228 [label="Sales <= 34.45\ngini = 0.401\nsamples = 18\nvalue = [5, 13]"] ;
218 -> 228 ;
229 [label="Duration <= 31.0\ngini = 0.444\nsamples = 3\nvalue = [2, 1]"] ;
228 -> 229 ;
230 [label="gini = 0.0\nsamples = 1\nvalue = [1, 0]"] ;
229 -> 230 ;
231 [label="Age <= 52.5\ngini = 0.5\nsamples = 2\nvalue = [1, 1]"] ;
229 -> 231 ;
232 [label="gini = 0.0\nsamples = 1\nvalue = [1, 0]"] ;
231 -> 232 ;
233 [label="gini = 0.0\nsamples = 1\nvalue = [0, 1]"] ;
231 -> 233 ;
234 [label="Age <= 39.0\ngini = 0.32\nsamples = 15\nvalue = [3, 12]"] ;
228 -> 234 ;
235 [label="Sales <= 47.4\ngini = 0.48\nsamples = 5\nvalue = [2, 3]"] ;
234 -> 235 ;
236 [label="gini = 0.0\nsamples = 3\nvalue = [0, 3]"] ;
235 -> 236 ;
237 [label="gini = 0.0\nsamples = 2\nvalue = [2, 0]"] ;
235 -> 237 ;
238 [label="Duration <= 29.0\ngini = 0.18\nsamples = 10\nvalue = [1, 9]"] ;
234 -> 238 ;
239 [label="Age <= 63.0\ngini = 0.444\nsamples = 3\nvalue = [1, 2]"] ;
238 -> 239 ;
240 [label="gini = 0.0\nsamples = 2\nvalue = [0, 2]"] ;
239 -> 240 ;
241 [label="gini = 0.0\nsamples = 1\nvalue = [1, 0]"] ;
239 -> 241 ;
242 [label="gini = 0.0\nsamples = 7\nvalue = [0, 7]"] ;
238 -> 242 ;
243 [label="gini = 0.0\nsamples = 2\nvalue = [2, 0]"] ;
179 -> 243 ;
244 [label="gini = 0.0\nsamples = 6\nvalue = [0, 6]"] ;
178 -> 244 ;
245 [label="Sales <= 36.75\ngini = 0.375\nsamples = 4\nvalue = [3, 1]"] ;
177 -> 245 ;
246 [label="gini = 0.0\nsamples = 1\nvalue = [0, 1]"] ;
245 -> 246 ;
247 [label="gini = 0.0\nsamples = 3\nvalue = [3, 0]"] ;
245 -> 247 ;
248 [label="Sales <= 19.25\ngini = 0.124\nsamples = 15\nvalue = [14, 1]"] ;
30 -> 248 ;
249 [label="Commision <= 30.5\ngini = 0.5\nsamples = 2\nvalue = [1, 1]"] ;
248 -> 249 ;
250 [label="gini = 0.0\nsamples = 1\nvalue = [0, 1]"] ;
249 -> 250 ;
251 [label="gini = 0.0\nsamples = 1\nvalue = [1, 0]"] ;
249 -> 251 ;
252 [label="gini = 0.0\nsamples = 13\nvalue = [13, 0]"] ;
248 -> 252 ;
253 [label="Duration <= 12.5\ngini = 0.364\nsamples = 293\nvalue = [70, 223]"] ;
1 -> 253 ;
254 [label="Age <= 35.0\ngini = 0.198\nsamples = 9\nvalue = [8, 1]"] ;
253 -> 254 ;
255 [label="Duration <= 9.5\ngini = 0.444\nsamples = 3\nvalue = [2, 1]"] ;
254 -> 255 ;
256 [label="gini = 0.0\nsamples = 2\nvalue = [2, 0]"] ;
255 -> 256 ;
257 [label="gini = 0.0\nsamples = 1\nvalue = [0, 1]"] ;
255 -> 257 ;
258 [label="gini = 0.0\nsamples = 6\nvalue = [6, 0]"] ;
254 -> 258 ;
259 [label="Commision <= 15.625\ngini = 0.341\nsamples = 284\nvalue = [62, 222]"] ;
253 -> 259 ;
260 [label="Commision <= 3.275\ngini = 0.083\nsamples = 23\nvalue = [1, 22]"] ;
259 -> 260 ;
261 [label="gini = 0.0\nsamples = 1\nvalue = [1, 0]"] ;
260 -> 261 ;
262 [label="gini = 0.0\nsamples = 22\nvalue = [0, 22]"] ;
260 -> 262 ;
263 [label="Sales <= 62.715\ngini = 0.358\nsamples = 261\nvalue = [61, 200]"] ;
259 -> 263 ;
264 [label="gini = 0.0\nsamples = 2\nvalue = [2, 0]"] ;
263 -> 264 ;
265 [label="Age <= 26.5\ngini = 0.352\nsamples = 259\nvalue = [59, 200]"] ;
263 -> 265 ;
266 [label="Commision <= 58.605\ngini = 0.457\nsamples = 34\nvalue = [12, 22]"] ;
265 -> 266 ;
267 [label="Duration <= 374.0\ngini = 0.493\nsamples = 25\nvalue = [11, 14]"] ;
266 -> 267 ;
268 [label="Sales <= 162.5\ngini = 0.463\nsamples = 22\nvalue = [8, 14]"] ;
267 -> 268 ;
269 [label="Age <= 21.5\ngini = 0.355\nsamples = 13\nvalue = [3, 10]"] ;
268 -> 269 ;
270 [label="gini = 0.0\nsamples = 2\nvalue = [2, 0]"] ;
269 -> 270 ;
271 [label="Duration <= 18.5\ngini = 0.165\nsamples = 11\nvalue = [1, 10]"] ;
269 -> 271 ;
272 [label="gini = 0.0\nsamples = 1\nvalue = [1, 0]"] ;
271 -> 272 ;
273 [label="gini = 0.0\nsamples = 10\nvalue = [0, 10]"] ;
271 -> 273 ;
274 [label="Product Name <= 1.5\ngini = 0.494\nsamples = 9\nvalue = [5, 4]"] ;
268 -> 274 ;
275 [label="gini = 0.0\nsamples = 3\nvalue = [3, 0]"] ;
274 -> 275 ;
276 [label="Age <= 25.5\ngini = 0.444\nsamples = 6\nvalue = [2, 4]"] ;
274 -> 276 ;
277 [label="gini = 0.0\nsamples = 3\nvalue = [0, 3]"] ;
276 -> 277 ;
278 [label="Duration <= 364.5\ngini = 0.444\nsamples = 3\nvalue = [2, 1]"] ;
276 -> 278 ;
279 [label="gini = 0.0\nsamples = 1\nvalue = [1, 0]"] ;
278 -> 279 ;
280 [label="gini = 0.5\nsamples = 2\nvalue = [1, 1]"] ;
278 -> 280 ;
281 [label="gini = 0.0\nsamples = 3\nvalue = [3, 0]"] ;
267 -> 281 ;
282 [label="Commision <= 118.875\ngini = 0.198\nsamples = 9\nvalue = [1, 8]"] ;
266 -> 282 ;
283 [label="gini = 0.0\nsamples = 8\nvalue = [0, 8]"] ;
282 -> 283 ;
284 [label="gini = 0.0\nsamples = 1\nvalue = [1, 0]"] ;
282 -> 284 ;
285 [label="Age <= 53.5\ngini = 0.331\nsamples = 225\nvalue = [47, 178]"] ;
265 -> 285 ;
286 [label="Duration <= 23.5\ngini = 0.303\nsamples = 193\nvalue = [36, 157]"] ;
285 -> 286 ;
287 [label="Duration <= 16.5\ngini = 0.483\nsamples = 22\nvalue = [9, 13]"] ;
286 -> 287 ;
288 [label="Sales <= 73.125\ngini = 0.198\nsamples = 9\nvalue = [1, 8]"] ;
287 -> 288 ;
289 [label="Duration <= 15.5\ngini = 0.444\nsamples = 3\nvalue = [1, 2]"] ;
288 -> 289 ;
290 [label="gini = 0.0\nsamples = 1\nvalue = [0, 1]"] ;
289 -> 290 ;
291 [label="Age <= 40.5\ngini = 0.5\nsamples = 2\nvalue = [1, 1]"] ;
289 -> 291 ;
292 [label="gini = 0.0\nsamples = 1\nvalue = [1, 0]"] ;
291 -> 292 ;
293 [label="gini = 0.0\nsamples = 1\nvalue = [0, 1]"] ;
291 -> 293 ;
294 [label="gini = 0.0\nsamples = 6\nvalue = [0, 6]"] ;
288 -> 294 ;
295 [label="Age <= 41.5\ngini = 0.473\nsamples = 13\nvalue = [8, 5]"] ;
287 -> 295 ;
296 [label="Age <= 34.5\ngini = 0.397\nsamples = 11\nvalue = [8, 3]"] ;
295 -> 296 ;
297 [label="Age <= 30.5\ngini = 0.49\nsamples = 7\nvalue = [4, 3]"] ;
296 -> 297 ;
298 [label="gini = 0.0\nsamples = 3\nvalue = [3, 0]"] ;
297 -> 298 ;
299 [label="Duration <= 20.5\ngini = 0.375\nsamples = 4\nvalue = [1, 3]"] ;
297 -> 299 ;
300 [label="gini = 0.0\nsamples = 3\nvalue = [0, 3]"] ;
299 -> 300 ;
301 [label="gini = 0.0\nsamples = 1\nvalue = [1, 0]"] ;
299 -> 301 ;
302 [label="gini = 0.0\nsamples = 4\nvalue = [4, 0]"] ;
296 -> 302 ;
303 [label="gini = 0.0\nsamples = 2\nvalue = [0, 2]"] ;
295 -> 303 ;
304 [label="Duration <= 388.0\ngini = 0.266\nsamples = 171\nvalue = [27, 144]"] ;
286 -> 304 ;
305 [label="Duration <= 368.5\ngini = 0.24\nsamples = 158\nvalue = [22, 136]"] ;
304 -> 305 ;
306 [label="Age <= 27.5\ngini = 0.289\nsamples = 120\nvalue = [21, 99]"] ;
305 -> 306 ;
307 [label="Sales <= 194.125\ngini = 0.444\nsamples = 3\nvalue = [2, 1]"] ;
306 -> 307 ;
308 [label="gini = 0.0\nsamples = 1\nvalue = [0, 1]"] ;
307 -> 308 ;
309 [label="gini = 0.0\nsamples = 2\nvalue = [2, 0]"] ;
307 -> 309 ;
310 [label="Age <= 44.5\ngini = 0.272\nsamples = 117\nvalue = [19, 98]"] ;
306 -> 310 ;
311 [label="Age <= 28.5\ngini = 0.317\nsamples = 91\nvalue = [18, 73]"] ;
310 -> 311 ;
312 [label="gini = 0.0\nsamples = 8\nvalue = [0, 8]"] ;
311 -> 312 ;
313 [label="Commision <= 17.32\ngini = 0.34\nsamples = 83\nvalue = [18, 65]"] ;
311 -> 313 ;
314 [label="gini = 0.0\nsamples = 7\nvalue = [0, 7]"] ;
313 -> 314 ;
315 [label="Commision <= 19.065\ngini = 0.361\nsamples = 76\nvalue = [18, 58]"] ;
313 -> 315 ;
316 [label="Duration <= 63.0\ngini = 0.444\nsamples = 6\nvalue = [4, 2]"] ;
315 -> 316 ;
317 [label="gini = 0.0\nsamples = 3\nvalue = [3, 0]"] ;
316 -> 317 ;
318 [label="Age <= 35.5\ngini = 0.444\nsamples = 3\nvalue = [1, 2]"] ;
316 -> 318 ;
319 [label="gini = 0.0\nsamples = 2\nvalue = [0, 2]"] ;
318 -> 319 ;
320 [label="gini = 0.0\nsamples = 1\nvalue = [1, 0]"] ;
318 -> 320 ;
321 [label="Age <= 41.5\ngini = 0.32\nsamples = 70\nvalue = [14, 56]"] ;
315 -> 321 ;
322 [label="Age <= 33.5\ngini = 0.285\nsamples = 58\nvalue = [10, 48]"] ;
321 -> 322 ;
323 [label="Age <= 32.5\ngini = 0.375\nsamples = 32\nvalue = [8, 24]"] ;
322 -> 323 ;
324 [label="Duration <= 365.5\ngini = 0.328\nsamples = 29\nvalue = [6, 23]"] ;
323 -> 324 ;
325 [label="Commision <= 21.365\ngini = 0.236\nsamples = 22\nvalue = [3, 19]"] ;
324 -> 325 ;
326 [label="Product Name <= 2.0\ngini = 0.5\nsamples = 2\nvalue = [1, 1]"] ;
325 -> 326 ;
327 [label="gini = 0.0\nsamples = 1\nvalue = [0, 1]"] ;
326 -> 327 ;
328 [label="gini = 0.0\nsamples = 1\nvalue = [1, 0]"] ;
326 -> 328 ;
329 [label="Product Name <= 3.5\ngini = 0.18\nsamples = 20\nvalue = [2, 18]"] ;
325 -> 329 ;
330 [label="Duration <= 123.0\ngini = 0.444\nsamples = 6\nvalue = [2, 4]"] ;
329 -> 330 ;
331 [label="gini = 0.0\nsamples = 2\nvalue = [0, 2]"] ;
330 -> 331 ;
332 [label="Sales <= 314.425\ngini = 0.5\nsamples = 4\nvalue = [2, 2]"] ;
330 -> 332 ;
333 [label="gini = 0.0\nsamples = 2\nvalue = [2, 0]"] ;
332 -> 333 ;
334 [label="gini = 0.0\nsamples = 2\nvalue = [0, 2]"] ;
332 -> 334 ;
335 [label="gini = 0.0\nsamples = 14\nvalue = [0, 14]"] ;
329 -> 335 ;
336 [label="Duration <= 366.5\ngini = 0.49\nsamples = 7\nvalue = [3, 4]"] ;
324 -> 336 ;
337 [label="gini = 0.0\nsamples = 2\nvalue = [2, 0]"] ;
336 -> 337 ;
338 [label="Age <= 31.5\ngini = 0.32\nsamples = 5\nvalue = [1, 4]"] ;
336 -> 338 ;
339 [label="gini = 0.0\nsamples = 2\nvalue = [0, 2]"] ;
338 -> 339 ;
340 [label="Duration <= 367.5\ngini = 0.444\nsamples = 3\nvalue = [1, 2]"] ;
338 -> 340 ;
341 [label="gini = 0.0\nsamples = 1\nvalue = [0, 1]"] ;
340 -> 341 ;
342 [label="gini = 0.5\nsamples = 2\nvalue = [1, 1]"] ;
340 -> 342 ;
343 [label="Commision <= 58.605\ngini = 0.444\nsamples = 3\nvalue = [2, 1]"] ;
323 -> 343 ;
344 [label="gini = 0.0\nsamples = 1\nvalue = [0, 1]"] ;
343 -> 344 ;
345 [label="gini = 0.0\nsamples = 2\nvalue = [2, 0]"] ;
343 -> 345 ;
346 [label="Duration <= 56.0\ngini = 0.142\nsamples = 26\nvalue = [2, 24]"] ;
322 -> 346 ;
347 [label="Sales <= 117.975\ngini = 0.444\nsamples = 3\nvalue = [1, 2]"] ;
346 -> 347 ;
348 [label="gini = 0.0\nsamples = 2\nvalue = [0, 2]"] ;
347 -> 348 ;
349 [label="gini = 0.0\nsamples = 1\nvalue = [1, 0]"] ;
347 -> 349 ;
350 [label="Age <= 40.5\ngini = 0.083\nsamples = 23\nvalue = [1, 22]"] ;
346 -> 350 ;
351 [label="gini = 0.0\nsamples = 16\nvalue = [0, 16]"] ;
350 -> 351 ;
352 [label="Commision <= 58.605\ngini = 0.245\nsamples = 7\nvalue = [1, 6]"] ;
350 -> 352 ;
353 [label="Sales <= 182.0\ngini = 0.444\nsamples = 3\nvalue = [1, 2]"] ;
352 -> 353 ;
354 [label="gini = 0.0\nsamples = 2\nvalue = [0, 2]"] ;
353 -> 354 ;
355 [label="gini = 0.0\nsamples = 1\nvalue = [1, 0]"] ;
353 -> 355 ;
356 [label="gini = 0.0\nsamples = 4\nvalue = [0, 4]"] ;
352 -> 356 ;
357 [label="Duration <= 367.5\ngini = 0.444\nsamples = 12\nvalue = [4, 8]"] ;
321 -> 357 ;
358 [label="Commision <= 41.48\ngini = 0.397\nsamples = 11\nvalue = [3, 8]"] ;
357 -> 358 ;
359 [label="gini = 0.0\nsamples = 2\nvalue = [0, 2]"] ;
358 -> 359 ;
360 [label="Sales <= 201.925\ngini = 0.444\nsamples = 9\nvalue = [3, 6]"] ;
358 -> 360 ;
361 [label="gini = 0.0\nsamples = 1\nvalue = [1, 0]"] ;
360 -> 361 ;
362 [label="Age <= 42.5\ngini = 0.375\nsamples = 8\nvalue = [2, 6]"] ;
360 -> 362 ;
363 [label="Duration <= 365.5\ngini = 0.5\nsamples = 4\nvalue = [2, 2]"] ;
362 -> 363 ;
364 [label="Product Name <= 3.5\ngini = 0.444\nsamples = 3\nvalue = [2, 1]"] ;
363 -> 364 ;
365 [label="gini = 0.0\nsamples = 1\nvalue = [1, 0]"] ;
364 -> 365 ;
366 [label="Commision <= 58.605\ngini = 0.5\nsamples = 2\nvalue = [1, 1]"] ;
364 -> 366 ;
367 [label="gini = 0.0\nsamples = 1\nvalue = [1, 0]"] ;
366 -> 367 ;
368 [label="gini = 0.0\nsamples = 1\nvalue = [0, 1]"] ;
366 -> 368 ;
369 [label="gini = 0.0\nsamples = 1\nvalue = [0, 1]"] ;
363 -> 369 ;
370 [label="gini = 0.0\nsamples = 4\nvalue = [0, 4]"] ;
362 -> 370 ;
371 [label="gini = 0.0\nsamples = 1\nvalue = [1, 0]"] ;
357 -> 371 ;
372 [label="Duration <= 367.5\ngini = 0.074\nsamples = 26\nvalue = [1, 25]"] ;
310 -> 372 ;
373 [label="gini = 0.0\nsamples = 25\nvalue = [0, 25]"] ;
372 -> 373 ;
374 [label="gini = 0.0\nsamples = 1\nvalue = [1, 0]"] ;
372 -> 374 ;
375 [label="Age <= 47.5\ngini = 0.051\nsamples = 38\nvalue = [1, 37]"] ;
305 -> 375 ;
376 [label="gini = 0.0\nsamples = 36\nvalue = [0, 36]"] ;
375 -> 376 ;
377 [label="Sales <= 272.3\ngini = 0.5\nsamples = 2\nvalue = [1, 1]"] ;
375 -> 377 ;
378 [label="gini = 0.0\nsamples = 1\nvalue = [1, 0]"] ;
377 -> 378 ;
379 [label="gini = 0.0\nsamples = 1\nvalue = [0, 1]"] ;
377 -> 379 ;
380 [label="Commision <= 71.025\ngini = 0.473\nsamples = 13\nvalue = [5, 8]"] ;
304 -> 380 ;
381 [label="Age <= 42.0\ngini = 0.494\nsamples = 9\nvalue = [5, 4]"] ;
380 -> 381 ;
382 [label="Age <= 27.5\ngini = 0.408\nsamples = 7\nvalue = [5, 2]"] ;
381 -> 382 ;
383 [label="gini = 0.0\nsamples = 1\nvalue = [0, 1]"] ;
382 -> 383 ;
384 [label="Duration <= 407.0\ngini = 0.278\nsamples = 6\nvalue = [5, 1]"] ;
382 -> 384 ;
385 [label="gini = 0.0\nsamples = 4\nvalue = [4, 0]"] ;
384 -> 385 ;
386 [label="Sales <= 220.35\ngini = 0.5\nsamples = 2\nvalue = [1, 1]"] ;
384 -> 386 ;
387 [label="gini = 0.0\nsamples = 1\nvalue = [1, 0]"] ;
386 -> 387 ;
388 [label="gini = 0.0\nsamples = 1\nvalue = [0, 1]"] ;
386 -> 388 ;
389 [label="gini = 0.0\nsamples = 2\nvalue = [0, 2]"] ;
381 -> 389 ;
390 [label="gini = 0.0\nsamples = 4\nvalue = [0, 4]"] ;
380 -> 390 ;
391 [label="Commision <= 37.315\ngini = 0.451\nsamples = 32\nvalue = [11, 21]"] ;
285 -> 391 ;
392 [label="gini = 0.0\nsamples = 10\nvalue = [0, 10]"] ;
391 -> 392 ;
393 [label="Age <= 56.5\ngini = 0.5\nsamples = 22\nvalue = [11, 11]"] ;
391 -> 393 ;
394 [label="gini = 0.0\nsamples = 3\nvalue = [3, 0]"] ;
393 -> 394 ;
395 [label="Duration <= 93.5\ngini = 0.488\nsamples = 19\nvalue = [8, 11]"] ;
393 -> 395 ;
396 [label="gini = 0.0\nsamples = 3\nvalue = [3, 0]"] ;
395 -> 396 ;
397 [label="Sales <= 174.425\ngini = 0.43\nsamples = 16\nvalue = [5, 11]"] ;
395 -> 397 ;
398 [label="gini = 0.0\nsamples = 1\nvalue = [1, 0]"] ;
397 -> 398 ;
399 [label="Sales <= 295.25\ngini = 0.391\nsamples = 15\nvalue = [4, 11]"] ;
397 -> 399 ;
400 [label="Sales <= 223.5\ngini = 0.298\nsamples = 11\nvalue = [2, 9]"] ;
399 -> 400 ;
401 [label="Duration <= 366.5\ngini = 0.444\nsamples = 6\nvalue = [2, 4]"] ;
400 -> 401 ;
402 [label="gini = 0.0\nsamples = 1\nvalue = [1, 0]"] ;
401 -> 402 ;
403 [label="Age <= 73.5\ngini = 0.32\nsamples = 5\nvalue = [1, 4]"] ;
401 -> 403 ;
404 [label="gini = 0.0\nsamples = 3\nvalue = [0, 3]"] ;
403 -> 404 ;
405 [label="Commision <= 48.605\ngini = 0.5\nsamples = 2\nvalue = [1, 1]"] ;
403 -> 405 ;
406 [label="gini = 0.0\nsamples = 1\nvalue = [0, 1]"] ;
405 -> 406 ;
407 [label="gini = 0.0\nsamples = 1\nvalue = [1, 0]"] ;
405 -> 407 ;
408 [label="gini = 0.0\nsamples = 5\nvalue = [0, 5]"] ;
400 -> 408 ;
409 [label="Duration <= 366.5\ngini = 0.5\nsamples = 4\nvalue = [2, 2]"] ;
399 -> 409 ;
410 [label="gini = 0.0\nsamples = 2\nvalue = [2, 0]"] ;
409 -> 410 ;
411 [label="gini = 0.0\nsamples = 2\nvalue = [0, 2]"] ;
409 -> 411 ;
412 [label="Sales <= 32.5\ngini = 0.275\nsamples = 1430\nvalue = [1195, 235]"] ;
0 -> 412 [labeldistance=2.5, labelangle=-45, headlabel="False"] ;
413 [label="Product Name <= 1.5\ngini = 0.161\nsamples = 783\nvalue = [714, 69]"] ;
412 -> 413 ;
414 [label="Agency_Code <= 1.5\ngini = 0.097\nsamples = 430\nvalue = [408, 22]"] ;
413 -> 414 ;
415 [label="Duration <= 12.5\ngini = 0.48\nsamples = 5\nvalue = [3, 2]"] ;
414 -> 415 ;
416 [label="gini = 0.0\nsamples = 1\nvalue = [1, 0]"] ;
415 -> 416 ;
417 [label="Duration <= 18.5\ngini = 0.5\nsamples = 4\nvalue = [2, 2]"] ;
415 -> 417 ;
418 [label="gini = 0.0\nsamples = 1\nvalue = [0, 1]"] ;
417 -> 418 ;
419 [label="Duration <= 23.5\ngini = 0.444\nsamples = 3\nvalue = [2, 1]"] ;
417 -> 419 ;
420 [label="gini = 0.0\nsamples = 1\nvalue = [1, 0]"] ;
419 -> 420 ;
421 [label="Duration <= 41.5\ngini = 0.5\nsamples = 2\nvalue = [1, 1]"] ;
419 -> 421 ;
422 [label="gini = 0.0\nsamples = 1\nvalue = [0, 1]"] ;
421 -> 422 ;
423 [label="gini = 0.0\nsamples = 1\nvalue = [1, 0]"] ;
421 -> 423 ;
424 [label="Duration <= 255.0\ngini = 0.09\nsamples = 425\nvalue = [405, 20]"] ;
414 -> 424 ;
425 [label="Duration <= 5.5\ngini = 0.086\nsamples = 422\nvalue = [403, 19]"] ;
424 -> 425 ;
426 [label="gini = 0.0\nsamples = 80\nvalue = [80, 0]"] ;
425 -> 426 ;
427 [label="Age <= 30.5\ngini = 0.105\nsamples = 342\nvalue = [323, 19]"] ;
425 -> 427 ;
428 [label="gini = 0.0\nsamples = 41\nvalue = [41, 0]"] ;
427 -> 428 ;
429 [label="Age <= 35.5\ngini = 0.118\nsamples = 301\nvalue = [282, 19]"] ;
427 -> 429 ;
430 [label="Sales <= 27.0\ngini = 0.238\nsamples = 29\nvalue = [25, 4]"] ;
429 -> 430 ;
431 [label="Sales <= 13.5\ngini = 0.147\nsamples = 25\nvalue = [23, 2]"] ;
430 -> 431 ;
432 [label="Duration <= 29.0\ngini = 0.32\nsamples = 10\nvalue = [8, 2]"] ;
431 -> 432 ;
433 [label="gini = 0.0\nsamples = 4\nvalue = [4, 0]"] ;
432 -> 433 ;
434 [label="Duration <= 44.0\ngini = 0.444\nsamples = 6\nvalue = [4, 2]"] ;
432 -> 434 ;
435 [label="gini = 0.0\nsamples = 2\nvalue = [0, 2]"] ;
434 -> 435 ;
436 [label="gini = 0.0\nsamples = 4\nvalue = [4, 0]"] ;
434 -> 436 ;
437 [label="gini = 0.0\nsamples = 15\nvalue = [15, 0]"] ;
431 -> 437 ;
438 [label="Age <= 33.5\ngini = 0.5\nsamples = 4\nvalue = [2, 2]"] ;
430 -> 438 ;
439 [label="gini = 0.0\nsamples = 1\nvalue = [1, 0]"] ;
438 -> 439 ;
440 [label="Sales <= 29.0\ngini = 0.444\nsamples = 3\nvalue = [1, 2]"] ;
438 -> 440 ;
441 [label="gini = 0.0\nsamples = 1\nvalue = [0, 1]"] ;
440 -> 441 ;
442 [label="Duration <= 22.0\ngini = 0.5\nsamples = 2\nvalue = [1, 1]"] ;
440 -> 442 ;
443 [label="gini = 0.0\nsamples = 1\nvalue = [0, 1]"] ;
442 -> 443 ;
444 [label="gini = 0.0\nsamples = 1\nvalue = [1, 0]"] ;
442 -> 444 ;
445 [label="Sales <= 11.5\ngini = 0.104\nsamples = 272\nvalue = [257, 15]"] ;
429 -> 445 ;
446 [label="Destination <= 1.5\ngini = 0.048\nsamples = 81\nvalue = [79, 2]"] ;
445 -> 446 ;
447 [label="Age <= 51.0\ngini = 0.025\nsamples = 79\nvalue = [78, 1]"] ;
446 -> 447 ;
448 [label="gini = 0.0\nsamples = 70\nvalue = [70, 0]"] ;
447 -> 448 ;
449 [label="Age <= 52.5\ngini = 0.198\nsamples = 9\nvalue = [8, 1]"] ;
447 -> 449 ;
450 [label="Duration <= 26.0\ngini = 0.444\nsamples = 3\nvalue = [2, 1]"] ;
449 -> 450 ;
451 [label="gini = 0.0\nsamples = 2\nvalue = [2, 0]"] ;
450 -> 451 ;
452 [label="gini = 0.0\nsamples = 1\nvalue = [0, 1]"] ;
450 -> 452 ;
453 [label="gini = 0.0\nsamples = 6\nvalue = [6, 0]"] ;
449 -> 453 ;
454 [label="Duration <= 21.0\ngini = 0.5\nsamples = 2\nvalue = [1, 1]"] ;
446 -> 454 ;
455 [label="gini = 0.0\nsamples = 1\nvalue = [1, 0]"] ;
454 -> 455 ;
456 [label="gini = 0.0\nsamples = 1\nvalue = [0, 1]"] ;
454 -> 456 ;
457 [label="Age <= 47.5\ngini = 0.127\nsamples = 191\nvalue = [178, 13]"] ;
445 -> 457 ;
458 [label="Age <= 43.5\ngini = 0.148\nsamples = 161\nvalue = [148, 13]"] ;
457 -> 458 ;
459 [label="Sales <= 29.5\ngini = 0.12\nsamples = 141\nvalue = [132, 9]"] ;
458 -> 459 ;
460 [label="Sales <= 28.5\ngini = 0.133\nsamples = 126\nvalue = [117, 9]"] ;
459 -> 460 ;
461 [label="Commision <= 8.4\ngini = 0.123\nsamples = 122\nvalue = [114, 8]"] ;
460 -> 461 ;
462 [label="Sales <= 24.5\ngini = 0.112\nsamples = 118\nvalue = [111, 7]"] ;
461 -> 462 ;
463 [label="Duration <= 46.0\ngini = 0.133\nsamples = 98\nvalue = [91, 7]"] ;
462 -> 463 ;
464 [label="Duration <= 27.5\ngini = 0.102\nsamples = 74\nvalue = [70, 4]"] ;
463 -> 464 ;
465 [label="Duration <= 26.5\ngini = 0.145\nsamples = 51\nvalue = [47, 4]"] ;
464 -> 465 ;
466 [label="Sales <= 23.5\ngini = 0.08\nsamples = 48\nvalue = [46, 2]"] ;
465 -> 466 ;
467 [label="Duration <= 6.5\ngini = 0.044\nsamples = 44\nvalue = [43, 1]"] ;
466 -> 467 ;
468 [label="Commision <= 3.15\ngini = 0.32\nsamples = 5\nvalue = [4, 1]"] ;
467 -> 468 ;
469 [label="Sales <= 16.5\ngini = 0.5\nsamples = 2\nvalue = [1, 1]"] ;
468 -> 469 ;
470 [label="gini = 0.0\nsamples = 1\nvalue = [1, 0]"] ;
469 -> 470 ;
471 [label="gini = 0.0\nsamples = 1\nvalue = [0, 1]"] ;
469 -> 471 ;
472 [label="gini = 0.0\nsamples = 3\nvalue = [3, 0]"] ;
468 -> 472 ;
473 [label="gini = 0.0\nsamples = 39\nvalue = [39, 0]"] ;
467 -> 473 ;
474 [label="Duration <= 17.0\ngini = 0.375\nsamples = 4\nvalue = [3, 1]"] ;
466 -> 474 ;
475 [label="Duration <= 10.0\ngini = 0.5\nsamples = 2\nvalue = [1, 1]"] ;
474 -> 475 ;
476 [label="gini = 0.0\nsamples = 1\nvalue = [1, 0]"] ;
475 -> 476 ;
477 [label="gini = 0.0\nsamples = 1\nvalue = [0, 1]"] ;
475 -> 477 ;
478 [label="gini = 0.0\nsamples = 2\nvalue = [2, 0]"] ;
474 -> 478 ;
479 [label="Agency_Code <= 2.5\ngini = 0.444\nsamples = 3\nvalue = [1, 2]"] ;
465 -> 479 ;
480 [label="Sales <= 14.0\ngini = 0.5\nsamples = 2\nvalue = [1, 1]"] ;
479 -> 480 ;
481 [label="gini = 0.0\nsamples = 1\nvalue = [0, 1]"] ;
480 -> 481 ;
482 [label="gini = 0.0\nsamples = 1\nvalue = [1, 0]"] ;
480 -> 482 ;
483 [label="gini = 0.0\nsamples = 1\nvalue = [0, 1]"] ;
479 -> 483 ;
484 [label="gini = 0.0\nsamples = 23\nvalue = [23, 0]"] ;
464 -> 484 ;
485 [label="Duration <= 50.0\ngini = 0.219\nsamples = 24\nvalue = [21, 3]"] ;
463 -> 485 ;
486 [label="Age <= 36.5\ngini = 0.5\nsamples = 2\nvalue = [1, 1]"] ;
485 -> 486 ;
487 [label="gini = 0.0\nsamples = 1\nvalue = [0, 1]"] ;
486 -> 487 ;
488 [label="gini = 0.0\nsamples = 1\nvalue = [1, 0]"] ;
486 -> 488 ;
489 [label="Sales <= 18.0\ngini = 0.165\nsamples = 22\nvalue = [20, 2]"] ;
485 -> 489 ;
490 [label="Duration <= 109.0\ngini = 0.298\nsamples = 11\nvalue = [9, 2]"] ;
489 -> 490 ;
491 [label="Duration <= 91.5\ngini = 0.48\nsamples = 5\nvalue = [3, 2]"] ;
490 -> 491 ;
492 [label="Sales <= 16.0\ngini = 0.375\nsamples = 4\nvalue = [3, 1]"] ;
491 -> 492 ;
493 [label="gini = 0.0\nsamples = 2\nvalue = [2, 0]"] ;
492 -> 493 ;
494 [label="Duration <= 80.5\ngini = 0.5\nsamples = 2\nvalue = [1, 1]"] ;
492 -> 494 ;
495 [label="gini = 0.0\nsamples = 1\nvalue = [0, 1]"] ;
494 -> 495 ;
496 [label="gini = 0.0\nsamples = 1\nvalue = [1, 0]"] ;
494 -> 496 ;
497 [label="gini = 0.0\nsamples = 1\nvalue = [0, 1]"] ;
491 -> 497 ;
498 [label="gini = 0.0\nsamples = 6\nvalue = [6, 0]"] ;
490 -> 498 ;
499 [label="gini = 0.0\nsamples = 11\nvalue = [11, 0]"] ;
489 -> 499 ;
500 [label="gini = 0.0\nsamples = 20\nvalue = [20, 0]"] ;
462 -> 500 ;
501 [label="Duration <= 52.5\ngini = 0.375\nsamples = 4\nvalue = [3, 1]"] ;
461 -> 501 ;
502 [label="gini = 0.0\nsamples = 3\nvalue = [3, 0]"] ;
501 -> 502 ;
503 [label="gini = 0.0\nsamples = 1\nvalue = [0, 1]"] ;
501 -> 503 ;
504 [label="Duration <= 18.0\ngini = 0.375\nsamples = 4\nvalue = [3, 1]"] ;
460 -> 504 ;
505 [label="gini = 0.0\nsamples = 1\nvalue = [1, 0]"] ;
504 -> 505 ;
506 [label="Duration <= 30.0\ngini = 0.444\nsamples = 3\nvalue = [2, 1]"] ;
504 -> 506 ;
507 [label="gini = 0.5\nsamples = 2\nvalue = [1, 1]"] ;
506 -> 507 ;
508 [label="gini = 0.0\nsamples = 1\nvalue = [1, 0]"] ;
506 -> 508 ;
509 [label="gini = 0.0\nsamples = 15\nvalue = [15, 0]"] ;
459 -> 509 ;
510 [label="Sales <= 13.0\ngini = 0.32\nsamples = 20\nvalue = [16, 4]"] ;
458 -> 510 ;
511 [label="gini = 0.0\nsamples = 1\nvalue = [0, 1]"] ;
510 -> 511 ;
512 [label="Duration <= 33.0\ngini = 0.266\nsamples = 19\nvalue = [16, 3]"] ;
510 -> 512 ;
513 [label="Duration <= 26.0\ngini = 0.375\nsamples = 12\nvalue = [9, 3]"] ;
512 -> 513 ;
514 [label="Duration <= 14.5\ngini = 0.298\nsamples = 11\nvalue = [9, 2]"] ;
513 -> 514 ;
515 [label="Duration <= 13.0\ngini = 0.408\nsamples = 7\nvalue = [5, 2]"] ;
514 -> 515 ;
516 [label="Age <= 46.0\ngini = 0.278\nsamples = 6\nvalue = [5, 1]"] ;
515 -> 516 ;
517 [label="gini = 0.0\nsamples = 5\nvalue = [5, 0]"] ;
516 -> 517 ;
518 [label="gini = 0.0\nsamples = 1\nvalue = [0, 1]"] ;
516 -> 518 ;
519 [label="gini = 0.0\nsamples = 1\nvalue = [0, 1]"] ;
515 -> 519 ;
520 [label="gini = 0.0\nsamples = 4\nvalue = [4, 0]"] ;
514 -> 520 ;
521 [label="gini = 0.0\nsamples = 1\nvalue = [0, 1]"] ;
513 -> 521 ;
522 [label="gini = 0.0\nsamples = 7\nvalue = [7, 0]"] ;
512 -> 522 ;
523 [label="gini = 0.0\nsamples = 30\nvalue = [30, 0]"] ;
457 -> 523 ;
524 [label="Sales <= 11.0\ngini = 0.444\nsamples = 3\nvalue = [2, 1]"] ;
424 -> 524 ;
525 [label="gini = 0.0\nsamples = 1\nvalue = [0, 1]"] ;
524 -> 525 ;
526 [label="gini = 0.0\nsamples = 2\nvalue = [2, 0]"] ;
524 -> 526 ;
527 [label="Duration <= 35.5\ngini = 0.231\nsamples = 353\nvalue = [306, 47]"] ;
413 -> 527 ;
528 [label="Sales <= 20.5\ngini = 0.165\nsamples = 242\nvalue = [220, 22]"] ;
527 -> 528 ;
529 [label="Channel <= 0.5\ngini = 0.06\nsamples = 130\nvalue = [126, 4]"] ;
528 -> 529 ;
530 [label="gini = 0.0\nsamples = 1\nvalue = [0, 1]"] ;
529 -> 530 ;
531 [label="Age <= 25.5\ngini = 0.045\nsamples = 129\nvalue = [126, 3]"] ;
529 -> 531 ;
532 [label="Sales <= 19.9\ngini = 0.5\nsamples = 2\nvalue = [1, 1]"] ;
531 -> 532 ;
533 [label="gini = 0.0\nsamples = 1\nvalue = [0, 1]"] ;
532 -> 533 ;
534 [label="gini = 0.0\nsamples = 1\nvalue = [1, 0]"] ;
532 -> 534 ;
535 [label="Destination <= 1.5\ngini = 0.031\nsamples = 127\nvalue = [125, 2]"] ;
531 -> 535 ;
536 [label="Age <= 38.5\ngini = 0.017\nsamples = 120\nvalue = [119, 1]"] ;
535 -> 536 ;
537 [label="gini = 0.0\nsamples = 96\nvalue = [96, 0]"] ;
536 -> 537 ;
538 [label="Duration <= 3.5\ngini = 0.08\nsamples = 24\nvalue = [23, 1]"] ;
536 -> 538 ;
539 [label="Destination <= 0.5\ngini = 0.444\nsamples = 3\nvalue = [2, 1]"] ;
538 -> 539 ;
540 [label="Age <= 44.0\ngini = 0.5\nsamples = 2\nvalue = [1, 1]"] ;
539 -> 540 ;
541 [label="gini = 0.0\nsamples = 1\nvalue = [0, 1]"] ;
540 -> 541 ;
542 [label="gini = 0.0\nsamples = 1\nvalue = [1, 0]"] ;
540 -> 542 ;
543 [label="gini = 0.0\nsamples = 1\nvalue = [1, 0]"] ;
539 -> 543 ;
544 [label="gini = 0.0\nsamples = 21\nvalue = [21, 0]"] ;
538 -> 544 ;
545 [label="Commision <= 8.91\ngini = 0.245\nsamples = 7\nvalue = [6, 1]"] ;
535 -> 545 ;
546 [label="Age <= 50.5\ngini = 0.5\nsamples = 2\nvalue = [1, 1]"] ;
545 -> 546 ;
547 [label="gini = 0.0\nsamples = 1\nvalue = [0, 1]"] ;
546 -> 547 ;
548 [label="gini = 0.0\nsamples = 1\nvalue = [1, 0]"] ;
546 -> 548 ;
549 [label="gini = 0.0\nsamples = 5\nvalue = [5, 0]"] ;
545 -> 549 ;
550 [label="Age <= 28.5\ngini = 0.27\nsamples = 112\nvalue = [94, 18]"] ;
528 -> 550 ;
551 [label="Age <= 26.5\ngini = 0.473\nsamples = 13\nvalue = [8, 5]"] ;
550 -> 551 ;
552 [label="Age <= 16.5\ngini = 0.397\nsamples = 11\nvalue = [8, 3]"] ;
551 -> 552 ;
553 [label="gini = 0.0\nsamples = 1\nvalue = [0, 1]"] ;
552 -> 553 ;
554 [label="Duration <= 10.5\ngini = 0.32\nsamples = 10\nvalue = [8, 2]"] ;
552 -> 554 ;
555 [label="Agency_Code <= 1.5\ngini = 0.5\nsamples = 4\nvalue = [2, 2]"] ;
554 -> 555 ;
556 [label="Duration <= 8.5\ngini = 0.444\nsamples = 3\nvalue = [2, 1]"] ;
555 -> 556 ;
557 [label="gini = 0.0\nsamples = 2\nvalue = [2, 0]"] ;
556 -> 557 ;
558 [label="gini = 0.0\nsamples = 1\nvalue = [0, 1]"] ;
556 -> 558 ;
559 [label="gini = 0.0\nsamples = 1\nvalue = [0, 1]"] ;
555 -> 559 ;
560 [label="gini = 0.0\nsamples = 6\nvalue = [6, 0]"] ;
554 -> 560 ;
561 [label="gini = 0.0\nsamples = 2\nvalue = [0, 2]"] ;
551 -> 561 ;
562 [label="Sales <= 21.5\ngini = 0.228\nsamples = 99\nvalue = [86, 13]"] ;
550 -> 562 ;
563 [label="Duration <= 14.5\ngini = 0.469\nsamples = 8\nvalue = [5, 3]"] ;
562 -> 563 ;
564 [label="gini = 0.0\nsamples = 3\nvalue = [3, 0]"] ;
563 -> 564 ;
565 [label="Duration <= 28.5\ngini = 0.48\nsamples = 5\nvalue = [2, 3]"] ;
563 -> 565 ;
566 [label="gini = 0.0\nsamples = 2\nvalue = [0, 2]"] ;
565 -> 566 ;
567 [label="Duration <= 33.5\ngini = 0.444\nsamples = 3\nvalue = [2, 1]"] ;
565 -> 567 ;
568 [label="gini = 0.5\nsamples = 2\nvalue = [1, 1]"] ;
567 -> 568 ;
569 [label="gini = 0.0\nsamples = 1\nvalue = [1, 0]"] ;
567 -> 569 ;
570 [label="Duration <= 11.5\ngini = 0.196\nsamples = 91\nvalue = [81, 10]"] ;
562 -> 570 ;
571 [label="Age <= 55.0\ngini = 0.069\nsamples = 28\nvalue = [27, 1]"] ;
570 -> 571 ;
572 [label="gini = 0.0\nsamples = 26\nvalue = [26, 0]"] ;
571 -> 572 ;
573 [label="Commision <= 18.335\ngini = 0.5\nsamples = 2\nvalue = [1, 1]"] ;
571 -> 573 ;
574 [label="gini = 0.0\nsamples = 1\nvalue = [0, 1]"] ;
573 -> 574 ;
575 [label="gini = 0.0\nsamples = 1\nvalue = [1, 0]"] ;
573 -> 575 ;
576 [label="Duration <= 12.5\ngini = 0.245\nsamples = 63\nvalue = [54, 9]"] ;
570 -> 576 ;
577 [label="Sales <= 27.0\ngini = 0.444\nsamples = 3\nvalue = [1, 2]"] ;
576 -> 577 ;
578 [label="gini = 0.0\nsamples = 1\nvalue = [1, 0]"] ;
577 -> 578 ;
579 [label="gini = 0.0\nsamples = 2\nvalue = [0, 2]"] ;
577 -> 579 ;
580 [label="Sales <= 22.5\ngini = 0.206\nsamples = 60\nvalue = [53, 7]"] ;
576 -> 580 ;
581 [label="Duration <= 20.0\ngini = 0.444\nsamples = 3\nvalue = [2, 1]"] ;
580 -> 581 ;
582 [label="gini = 0.0\nsamples = 1\nvalue = [1, 0]"] ;
581 -> 582 ;
583 [label="Duration <= 30.5\ngini = 0.5\nsamples = 2\nvalue = [1, 1]"] ;
581 -> 583 ;
584 [label="gini = 0.0\nsamples = 1\nvalue = [0, 1]"] ;
583 -> 584 ;
585 [label="gini = 0.0\nsamples = 1\nvalue = [1, 0]"] ;
583 -> 585 ;
586 [label="Age <= 34.5\ngini = 0.188\nsamples = 57\nvalue = [51, 6]"] ;
580 -> 586 ;
587 [label="gini = 0.0\nsamples = 9\nvalue = [9, 0]"] ;
586 -> 587 ;
588 [label="Age <= 35.5\ngini = 0.219\nsamples = 48\nvalue = [42, 6]"] ;
586 -> 588 ;
589 [label="gini = 0.0\nsamples = 1\nvalue = [0, 1]"] ;
588 -> 589 ;
590 [label="Commision <= 10.035\ngini = 0.19\nsamples = 47\nvalue = [42, 5]"] ;
588 -> 590 ;
591 [label="Age <= 38.5\ngini = 0.229\nsamples = 38\nvalue = [33, 5]"] ;
590 -> 591 ;
592 [label="Duration <= 30.0\ngini = 0.161\nsamples = 34\nvalue = [31, 3]"] ;
591 -> 592 ;
593 [label="Duration <= 14.5\ngini = 0.121\nsamples = 31\nvalue = [29, 2]"] ;
592 -> 593 ;
594 [label="Sales <= 29.0\ngini = 0.32\nsamples = 5\nvalue = [4, 1]"] ;
593 -> 594 ;
595 [label="gini = 0.0\nsamples = 2\nvalue = [2, 0]"] ;
594 -> 595 ;
596 [label="Duration <= 13.5\ngini = 0.444\nsamples = 3\nvalue = [2, 1]"] ;
594 -> 596 ;
597 [label="gini = 0.0\nsamples = 1\nvalue = [1, 0]"] ;
596 -> 597 ;
598 [label="Sales <= 30.5\ngini = 0.5\nsamples = 2\nvalue = [1, 1]"] ;
596 -> 598 ;
599 [label="gini = 0.0\nsamples = 1\nvalue = [0, 1]"] ;
598 -> 599 ;
600 [label="gini = 0.0\nsamples = 1\nvalue = [1, 0]"] ;
598 -> 600 ;
601 [label="Sales <= 25.5\ngini = 0.074\nsamples = 26\nvalue = [25, 1]"] ;
593 -> 601 ;
602 [label="Sales <= 24.935\ngini = 0.198\nsamples = 9\nvalue = [8, 1]"] ;
601 -> 602 ;
603 [label="gini = 0.0\nsamples = 6\nvalue = [6, 0]"] ;
602 -> 603 ;
604 [label="Duration <= 23.0\ngini = 0.444\nsamples = 3\nvalue = [2, 1]"] ;
602 -> 604 ;
605 [label="gini = 0.5\nsamples = 2\nvalue = [1, 1]"] ;
604 -> 605 ;
606 [label="gini = 0.0\nsamples = 1\nvalue = [1, 0]"] ;
604 -> 606 ;
607 [label="gini = 0.0\nsamples = 17\nvalue = [17, 0]"] ;
601 -> 607 ;
608 [label="Duration <= 32.0\ngini = 0.444\nsamples = 3\nvalue = [2, 1]"] ;
592 -> 608 ;
609 [label="gini = 0.0\nsamples = 1\nvalue = [0, 1]"] ;
608 -> 609 ;
610 [label="gini = 0.0\nsamples = 2\nvalue = [2, 0]"] ;
608 -> 610 ;
611 [label="Duration <= 16.0\ngini = 0.5\nsamples = 4\nvalue = [2, 2]"] ;
591 -> 611 ;
612 [label="gini = 0.0\nsamples = 1\nvalue = [1, 0]"] ;
611 -> 612 ;
613 [label="Duration <= 19.0\ngini = 0.444\nsamples = 3\nvalue = [1, 2]"] ;
611 -> 613 ;
614 [label="gini = 0.0\nsamples = 1\nvalue = [0, 1]"] ;
613 -> 614 ;
615 [label="Age <= 43.0\ngini = 0.5\nsamples = 2\nvalue = [1, 1]"] ;
613 -> 615 ;
616 [label="gini = 0.0\nsamples = 1\nvalue = [0, 1]"] ;
615 -> 616 ;
617 [label="gini = 0.0\nsamples = 1\nvalue = [1, 0]"] ;
615 -> 617 ;
618 [label="gini = 0.0\nsamples = 9\nvalue = [9, 0]"] ;
590 -> 618 ;
619 [label="Sales <= 14.85\ngini = 0.349\nsamples = 111\nvalue = [86, 25]"] ;
527 -> 619 ;
620 [label="gini = 0.0\nsamples = 12\nvalue = [12, 0]"] ;
619 -> 620 ;
621 [label="Age <= 59.5\ngini = 0.378\nsamples = 99\nvalue = [74, 25]"] ;
619 -> 621 ;
622 [label="Product Name <= 3.0\ngini = 0.404\nsamples = 89\nvalue = [64, 25]"] ;
621 -> 622 ;
623 [label="Destination <= 1.5\ngini = 0.397\nsamples = 88\nvalue = [64, 24]"] ;
622 -> 623 ;
624 [label="Age <= 39.5\ngini = 0.384\nsamples = 85\nvalue = [63, 22]"] ;
623 -> 624 ;
625 [label="Age <= 28.5\ngini = 0.403\nsamples = 75\nvalue = [54, 21]"] ;
624 -> 625 ;
626 [label="Sales <= 30.5\ngini = 0.198\nsamples = 9\nvalue = [8, 1]"] ;
625 -> 626 ;
627 [label="gini = 0.0\nsamples = 8\nvalue = [8, 0]"] ;
626 -> 627 ;
628 [label="gini = 0.0\nsamples = 1\nvalue = [0, 1]"] ;
626 -> 628 ;
629 [label="Age <= 29.5\ngini = 0.422\nsamples = 66\nvalue = [46, 20]"] ;
625 -> 629 ;
630 [label="gini = 0.0\nsamples = 2\nvalue = [0, 2]"] ;
629 -> 630 ;
631 [label="Age <= 35.5\ngini = 0.404\nsamples = 64\nvalue = [46, 18]"] ;
629 -> 631 ;
632 [label="gini = 0.0\nsamples = 5\nvalue = [5, 0]"] ;
631 -> 632 ;
633 [label="Sales <= 26.5\ngini = 0.424\nsamples = 59\nvalue = [41, 18]"] ;
631 -> 633 ;
634 [label="Sales <= 22.5\ngini = 0.444\nsamples = 48\nvalue = [32, 16]"] ;
633 -> 634 ;
635 [label="Duration <= 51.5\ngini = 0.388\nsamples = 38\nvalue = [28, 10]"] ;
634 -> 635 ;
636 [label="Duration <= 50.5\ngini = 0.49\nsamples = 14\nvalue = [8, 6]"] ;
635 -> 636 ;
637 [label="Duration <= 48.5\ngini = 0.473\nsamples = 13\nvalue = [8, 5]"] ;
636 -> 637 ;
638 [label="Duration <= 46.5\ngini = 0.496\nsamples = 11\nvalue = [6, 5]"] ;
637 -> 638 ;
639 [label="Sales <= 20.5\ngini = 0.444\nsamples = 9\nvalue = [6, 3]"] ;
638 -> 639 ;
640 [label="Duration <= 44.5\ngini = 0.49\nsamples = 7\nvalue = [4, 3]"] ;
639 -> 640 ;
641 [label="Duration <= 39.5\ngini = 0.5\nsamples = 6\nvalue = [3, 3]"] ;
640 -> 641 ;
642 [label="Duration <= 38.5\ngini = 0.444\nsamples = 3\nvalue = [2, 1]"] ;
641 -> 642 ;
643 [label="gini = 0.5\nsamples = 2\nvalue = [1, 1]"] ;
642 -> 643 ;
644 [label="gini = 0.0\nsamples = 1\nvalue = [1, 0]"] ;
642 -> 644 ;
645 [label="Duration <= 41.5\ngini = 0.444\nsamples = 3\nvalue = [1, 2]"] ;
641 -> 645 ;
646 [label="gini = 0.0\nsamples = 1\nvalue = [0, 1]"] ;
645 -> 646 ;
647 [label="gini = 0.5\nsamples = 2\nvalue = [1, 1]"] ;
645 -> 647 ;
648 [label="gini = 0.0\nsamples = 1\nvalue = [1, 0]"] ;
640 -> 648 ;
649 [label="gini = 0.0\nsamples = 2\nvalue = [2, 0]"] ;
639 -> 649 ;
650 [label="gini = 0.0\nsamples = 2\nvalue = [0, 2]"] ;
638 -> 650 ;
651 [label="gini = 0.0\nsamples = 2\nvalue = [2, 0]"] ;
637 -> 651 ;
652 [label="gini = 0.0\nsamples = 1\nvalue = [0, 1]"] ;
636 -> 652 ;
653 [label="Age <= 37.0\ngini = 0.278\nsamples = 24\nvalue = [20, 4]"] ;
635 -> 653 ;
654 [label="Duration <= 386.0\ngini = 0.227\nsamples = 23\nvalue = [20, 3]"] ;
653 -> 654 ;
655 [label="Duration <= 95.5\ngini = 0.172\nsamples = 21\nvalue = [19, 2]"] ;
654 -> 655 ;
656 [label="Duration <= 88.5\ngini = 0.26\nsamples = 13\nvalue = [11, 2]"] ;
655 -> 656 ;
657 [label="Duration <= 63.0\ngini = 0.165\nsamples = 11\nvalue = [10, 1]"] ;
656 -> 657 ;
658 [label="gini = 0.0\nsamples = 6\nvalue = [6, 0]"] ;
657 -> 658 ;
659 [label="Duration <= 68.0\ngini = 0.32\nsamples = 5\nvalue = [4, 1]"] ;
657 -> 659 ;
660 [label="gini = 0.0\nsamples = 1\nvalue = [0, 1]"] ;
659 -> 660 ;
661 [label="gini = 0.0\nsamples = 4\nvalue = [4, 0]"] ;
659 -> 661 ;
662 [label="gini = 0.5\nsamples = 2\nvalue = [1, 1]"] ;
656 -> 662 ;
663 [label="gini = 0.0\nsamples = 8\nvalue = [8, 0]"] ;
655 -> 663 ;
664 [label="gini = 0.5\nsamples = 2\nvalue = [1, 1]"] ;
654 -> 664 ;
665 [label="gini = 0.0\nsamples = 1\nvalue = [0, 1]"] ;
653 -> 665 ;
666 [label="Duration <= 58.5\ngini = 0.48\nsamples = 10\nvalue = [4, 6]"] ;
634 -> 666 ;
667 [label="Duration <= 41.0\ngini = 0.48\nsamples = 5\nvalue = [3, 2]"] ;
666 -> 667 ;
668 [label="gini = 0.0\nsamples = 1\nvalue = [0, 1]"] ;
667 -> 668 ;
669 [label="Duration <= 52.0\ngini = 0.375\nsamples = 4\nvalue = [3, 1]"] ;
667 -> 669 ;
670 [label="gini = 0.0\nsamples = 2\nvalue = [2, 0]"] ;
669 -> 670 ;
671 [label="Sales <= 24.5\ngini = 0.5\nsamples = 2\nvalue = [1, 1]"] ;
669 -> 671 ;
672 [label="gini = 0.0\nsamples = 1\nvalue = [0, 1]"] ;
671 -> 672 ;
673 [label="gini = 0.0\nsamples = 1\nvalue = [1, 0]"] ;
671 -> 673 ;
674 [label="Duration <= 155.5\ngini = 0.32\nsamples = 5\nvalue = [1, 4]"] ;
666 -> 674 ;
675 [label="gini = 0.0\nsamples = 4\nvalue = [0, 4]"] ;
674 -> 675 ;
676 [label="gini = 0.0\nsamples = 1\nvalue = [1, 0]"] ;
674 -> 676 ;
677 [label="Duration <= 72.0\ngini = 0.298\nsamples = 11\nvalue = [9, 2]"] ;
633 -> 677 ;
678 [label="gini = 0.0\nsamples = 5\nvalue = [5, 0]"] ;
677 -> 678 ;
679 [label="Duration <= 80.5\ngini = 0.444\nsamples = 6\nvalue = [4, 2]"] ;
677 -> 679 ;
680 [label="gini = 0.0\nsamples = 1\nvalue = [0, 1]"] ;
679 -> 680 ;
681 [label="Sales <= 28.5\ngini = 0.32\nsamples = 5\nvalue = [4, 1]"] ;
679 -> 681 ;
682 [label="Duration <= 152.0\ngini = 0.5\nsamples = 2\nvalue = [1, 1]"] ;
681 -> 682 ;
683 [label="gini = 0.0\nsamples = 1\nvalue = [1, 0]"] ;
682 -> 683 ;
684 [label="gini = 0.0\nsamples = 1\nvalue = [0, 1]"] ;
682 -> 684 ;
685 [label="gini = 0.0\nsamples = 3\nvalue = [3, 0]"] ;
681 -> 685 ;
686 [label="Duration <= 36.5\ngini = 0.18\nsamples = 10\nvalue = [9, 1]"] ;
624 -> 686 ;
687 [label="gini = 0.0\nsamples = 1\nvalue = [0, 1]"] ;
686 -> 687 ;
688 [label="gini = 0.0\nsamples = 9\nvalue = [9, 0]"] ;
686 -> 688 ;
689 [label="Age <= 33.0\ngini = 0.444\nsamples = 3\nvalue = [1, 2]"] ;
623 -> 689 ;
690 [label="gini = 0.0\nsamples = 1\nvalue = [1, 0]"] ;
689 -> 690 ;
691 [label="gini = 0.0\nsamples = 2\nvalue = [0, 2]"] ;
689 -> 691 ;
692 [label="gini = 0.0\nsamples = 1\nvalue = [0, 1]"] ;
622 -> 692 ;
693 [label="gini = 0.0\nsamples = 10\nvalue = [10, 0]"] ;
621 -> 693 ;
694 [label="Product Name <= 1.5\ngini = 0.381\nsamples = 647\nvalue = [481, 166]"] ;
412 -> 694 ;
695 [label="Agency_Code <= 2.5\ngini = 0.199\nsamples = 205\nvalue = [182, 23]"] ;
694 -> 695 ;
696 [label="Sales <= 37.5\ngini = 0.12\nsamples = 140\nvalue = [131, 9]"] ;
695 -> 696 ;
697 [label="Sales <= 36.5\ngini = 0.291\nsamples = 17\nvalue = [14, 3]"] ;
696 -> 697 ;
698 [label="Duration <= 6.5\ngini = 0.133\nsamples = 14\nvalue = [13, 1]"] ;
697 -> 698 ;
699 [label="gini = 0.5\nsamples = 2\nvalue = [1, 1]"] ;
698 -> 699 ;
700 [label="gini = 0.0\nsamples = 12\nvalue = [12, 0]"] ;
698 -> 700 ;
701 [label="Duration <= 27.5\ngini = 0.444\nsamples = 3\nvalue = [1, 2]"] ;
697 -> 701 ;
702 [label="gini = 0.0\nsamples = 1\nvalue = [0, 1]"] ;
701 -> 702 ;
703 [label="Destination <= 1.0\ngini = 0.5\nsamples = 2\nvalue = [1, 1]"] ;
701 -> 703 ;
704 [label="gini = 0.0\nsamples = 1\nvalue = [1, 0]"] ;
703 -> 704 ;
705 [label="gini = 0.0\nsamples = 1\nvalue = [0, 1]"] ;
703 -> 705 ;
706 [label="Sales <= 60.5\ngini = 0.093\nsamples = 123\nvalue = [117, 6]"] ;
696 -> 706 ;
707 [label="Sales <= 56.5\ngini = 0.146\nsamples = 63\nvalue = [58, 5]"] ;
706 -> 707 ;
708 [label="Duration <= 128.5\ngini = 0.077\nsamples = 50\nvalue = [48, 2]"] ;
707 -> 708 ;
709 [label="Duration <= 11.5\ngini = 0.043\nsamples = 46\nvalue = [45, 1]"] ;
708 -> 709 ;
710 [label="Duration <= 7.0\ngini = 0.219\nsamples = 8\nvalue = [7, 1]"] ;
709 -> 710 ;
711 [label="gini = 0.0\nsamples = 7\nvalue = [7, 0]"] ;
710 -> 711 ;
712 [label="gini = 0.0\nsamples = 1\nvalue = [0, 1]"] ;
710 -> 712 ;
713 [label="gini = 0.0\nsamples = 38\nvalue = [38, 0]"] ;
709 -> 713 ;
714 [label="Age <= 35.5\ngini = 0.375\nsamples = 4\nvalue = [3, 1]"] ;
708 -> 714 ;
715 [label="gini = 0.0\nsamples = 1\nvalue = [0, 1]"] ;
714 -> 715 ;
716 [label="gini = 0.0\nsamples = 3\nvalue = [3, 0]"] ;
714 -> 716 ;
717 [label="Duration <= 15.5\ngini = 0.355\nsamples = 13\nvalue = [10, 3]"] ;
707 -> 717 ;
718 [label="gini = 0.0\nsamples = 3\nvalue = [3, 0]"] ;
717 -> 718 ;
719 [label="Duration <= 41.0\ngini = 0.42\nsamples = 10\nvalue = [7, 3]"] ;
717 -> 719 ;
720 [label="Age <= 43.0\ngini = 0.444\nsamples = 3\nvalue = [1, 2]"] ;
719 -> 720 ;
721 [label="gini = 0.0\nsamples = 2\nvalue = [0, 2]"] ;
720 -> 721 ;
722 [label="gini = 0.0\nsamples = 1\nvalue = [1, 0]"] ;
720 -> 722 ;
723 [label="Sales <= 57.5\ngini = 0.245\nsamples = 7\nvalue = [6, 1]"] ;
719 -> 723 ;
724 [label="Duration <= 103.0\ngini = 0.5\nsamples = 2\nvalue = [1, 1]"] ;
723 -> 724 ;
725 [label="gini = 0.0\nsamples = 1\nvalue = [0, 1]"] ;
724 -> 725 ;
726 [label="gini = 0.0\nsamples = 1\nvalue = [1, 0]"] ;
724 -> 726 ;
727 [label="gini = 0.0\nsamples = 5\nvalue = [5, 0]"] ;
723 -> 727 ;
728 [label="Age <= 33.0\ngini = 0.033\nsamples = 60\nvalue = [59, 1]"] ;
706 -> 728 ;
729 [label="Age <= 31.0\ngini = 0.18\nsamples = 10\nvalue = [9, 1]"] ;
728 -> 729 ;
730 [label="gini = 0.0\nsamples = 9\nvalue = [9, 0]"] ;
729 -> 730 ;
731 [label="gini = 0.0\nsamples = 1\nvalue = [0, 1]"] ;
729 -> 731 ;
732 [label="gini = 0.0\nsamples = 50\nvalue = [50, 0]"] ;
728 -> 732 ;
733 [label="Duration <= 10.0\ngini = 0.338\nsamples = 65\nvalue = [51, 14]"] ;
695 -> 733 ;
734 [label="Age <= 45.5\ngini = 0.48\nsamples = 5\nvalue = [2, 3]"] ;
733 -> 734 ;
735 [label="gini = 0.0\nsamples = 2\nvalue = [0, 2]"] ;
734 -> 735 ;
736 [label="Duration <= 7.5\ngini = 0.444\nsamples = 3\nvalue = [2, 1]"] ;
734 -> 736 ;
737 [label="gini = 0.0\nsamples = 1\nvalue = [0, 1]"] ;
736 -> 737 ;
738 [label="gini = 0.0\nsamples = 2\nvalue = [2, 0]"] ;
736 -> 738 ;
739 [label="Sales <= 89.5\ngini = 0.299\nsamples = 60\nvalue = [49, 11]"] ;
733 -> 739 ;
740 [label="Age <= 20.0\ngini = 0.237\nsamples = 51\nvalue = [44, 7]"] ;
739 -> 740 ;
741 [label="gini = 0.0\nsamples = 1\nvalue = [0, 1]"] ;
740 -> 741 ;
742 [label="Duration <= 28.5\ngini = 0.211\nsamples = 50\nvalue = [44, 6]"] ;
740 -> 742 ;
743 [label="gini = 0.0\nsamples = 17\nvalue = [17, 0]"] ;
742 -> 743 ;
744 [label="Duration <= 31.0\ngini = 0.298\nsamples = 33\nvalue = [27, 6]"] ;
742 -> 744 ;
745 [label="gini = 0.0\nsamples = 1\nvalue = [0, 1]"] ;
744 -> 745 ;
746 [label="Age <= 29.5\ngini = 0.264\nsamples = 32\nvalue = [27, 5]"] ;
744 -> 746 ;
747 [label="Commision <= 14.7\ngini = 0.469\nsamples = 8\nvalue = [5, 3]"] ;
746 -> 747 ;
748 [label="Sales <= 37.5\ngini = 0.48\nsamples = 5\nvalue = [2, 3]"] ;
747 -> 748 ;
749 [label="Age <= 23.5\ngini = 0.444\nsamples = 3\nvalue = [2, 1]"] ;
748 -> 749 ;
750 [label="gini = 0.0\nsamples = 1\nvalue = [1, 0]"] ;
749 -> 750 ;
751 [label="Duration <= 99.0\ngini = 0.5\nsamples = 2\nvalue = [1, 1]"] ;
749 -> 751 ;
752 [label="gini = 0.0\nsamples = 1\nvalue = [0, 1]"] ;
751 -> 752 ;
753 [label="gini = 0.0\nsamples = 1\nvalue = [1, 0]"] ;
751 -> 753 ;
754 [label="gini = 0.0\nsamples = 2\nvalue = [0, 2]"] ;
748 -> 754 ;
755 [label="gini = 0.0\nsamples = 3\nvalue = [3, 0]"] ;
747 -> 755 ;
756 [label="Age <= 49.5\ngini = 0.153\nsamples = 24\nvalue = [22, 2]"] ;
746 -> 756 ;
757 [label="gini = 0.0\nsamples = 17\nvalue = [17, 0]"] ;
756 -> 757 ;
758 [label="Age <= 53.5\ngini = 0.408\nsamples = 7\nvalue = [5, 2]"] ;
756 -> 758 ;
759 [label="Commision <= 11.9\ngini = 0.444\nsamples = 3\nvalue = [1, 2]"] ;
758 -> 759 ;
760 [label="gini = 0.0\nsamples = 1\nvalue = [1, 0]"] ;
759 -> 760 ;
761 [label="gini = 0.0\nsamples = 2\nvalue = [0, 2]"] ;
759 -> 761 ;
762 [label="gini = 0.0\nsamples = 4\nvalue = [4, 0]"] ;
758 -> 762 ;
763 [label="Age <= 34.5\ngini = 0.494\nsamples = 9\nvalue = [5, 4]"] ;
739 -> 763 ;
764 [label="gini = 0.0\nsamples = 3\nvalue = [3, 0]"] ;
763 -> 764 ;
765 [label="Duration <= 37.5\ngini = 0.444\nsamples = 6\nvalue = [2, 4]"] ;
763 -> 765 ;
766 [label="Age <= 45.0\ngini = 0.444\nsamples = 3\nvalue = [2, 1]"] ;
765 -> 766 ;
767 [label="gini = 0.0\nsamples = 2\nvalue = [2, 0]"] ;
766 -> 767 ;
768 [label="gini = 0.0\nsamples = 1\nvalue = [0, 1]"] ;
766 -> 768 ;
769 [label="gini = 0.0\nsamples = 3\nvalue = [0, 3]"] ;
765 -> 769 ;
770 [label="Product Name <= 2.5\ngini = 0.438\nsamples = 442\nvalue = [299, 143]"] ;
694 -> 770 ;
771 [label="Channel <= 0.5\ngini = 0.42\nsamples = 407\nvalue = [285, 122]"] ;
770 -> 771 ;
772 [label="Duration <= 384.0\ngini = 0.245\nsamples = 7\nvalue = [1, 6]"] ;
771 -> 772 ;
773 [label="gini = 0.0\nsamples = 6\nvalue = [0, 6]"] ;
772 -> 773 ;
774 [label="gini = 0.0\nsamples = 1\nvalue = [1, 0]"] ;
772 -> 774 ;
775 [label="Age <= 33.5\ngini = 0.412\nsamples = 400\nvalue = [284, 116]"] ;
771 -> 775 ;
776 [label="Sales <= 38.0\ngini = 0.478\nsamples = 91\nvalue = [55, 36]"] ;
775 -> 776 ;
777 [label="gini = 0.0\nsamples = 4\nvalue = [4, 0]"] ;
776 -> 777 ;
778 [label="Destination <= 1.5\ngini = 0.485\nsamples = 87\nvalue = [51, 36]"] ;
776 -> 778 ;
779 [label="Duration <= 10.5\ngini = 0.466\nsamples = 65\nvalue = [41, 24]"] ;
778 -> 779 ;
780 [label="Destination <= 0.5\ngini = 0.497\nsamples = 13\nvalue = [6, 7]"] ;
779 -> 780 ;
781 [label="Age <= 31.5\ngini = 0.375\nsamples = 8\nvalue = [2, 6]"] ;
780 -> 781 ;
782 [label="Duration <= 6.5\ngini = 0.444\nsamples = 6\nvalue = [2, 4]"] ;
781 -> 782 ;
783 [label="gini = 0.0\nsamples = 1\nvalue = [0, 1]"] ;
782 -> 783 ;
784 [label="Duration <= 8.5\ngini = 0.48\nsamples = 5\nvalue = [2, 3]"] ;
782 -> 784 ;
785 [label="gini = 0.0\nsamples = 1\nvalue = [1, 0]"] ;
784 -> 785 ;
786 [label="Commision <= 26.73\ngini = 0.375\nsamples = 4\nvalue = [1, 3]"] ;
784 -> 786 ;
787 [label="Age <= 26.0\ngini = 0.5\nsamples = 2\nvalue = [1, 1]"] ;
786 -> 787 ;
788 [label="gini = 0.0\nsamples = 1\nvalue = [0, 1]"] ;
787 -> 788 ;
789 [label="gini = 0.0\nsamples = 1\nvalue = [1, 0]"] ;
787 -> 789 ;
790 [label="gini = 0.0\nsamples = 2\nvalue = [0, 2]"] ;
786 -> 790 ;
791 [label="gini = 0.0\nsamples = 2\nvalue = [0, 2]"] ;
781 -> 791 ;
792 [label="Age <= 27.0\ngini = 0.32\nsamples = 5\nvalue = [4, 1]"] ;
780 -> 792 ;
793 [label="gini = 0.0\nsamples = 1\nvalue = [0, 1]"] ;
792 -> 793 ;
794 [label="gini = 0.0\nsamples = 4\nvalue = [4, 0]"] ;
792 -> 794 ;
795 [label="Destination <= 0.5\ngini = 0.44\nsamples = 52\nvalue = [35, 17]"] ;
779 -> 795 ;
796 [label="Sales <= 47.5\ngini = 0.245\nsamples = 14\nvalue = [12, 2]"] ;
795 -> 796 ;
797 [label="Commision <= 11.88\ngini = 0.444\nsamples = 6\nvalue = [4, 2]"] ;
796 -> 797 ;
798 [label="gini = 0.0\nsamples = 1\nvalue = [0, 1]"] ;
797 -> 798 ;
799 [label="Duration <= 22.5\ngini = 0.32\nsamples = 5\nvalue = [4, 1]"] ;
797 -> 799 ;
800 [label="gini = 0.0\nsamples = 3\nvalue = [3, 0]"] ;
799 -> 800 ;
801 [label="Age <= 30.0\ngini = 0.5\nsamples = 2\nvalue = [1, 1]"] ;
799 -> 801 ;
802 [label="gini = 0.0\nsamples = 1\nvalue = [1, 0]"] ;
801 -> 802 ;
803 [label="gini = 0.0\nsamples = 1\nvalue = [0, 1]"] ;
801 -> 803 ;
804 [label="gini = 0.0\nsamples = 8\nvalue = [8, 0]"] ;
796 -> 804 ;
805 [label="Commision <= 38.61\ngini = 0.478\nsamples = 38\nvalue = [23, 15]"] ;
795 -> 805 ;
806 [label="Age <= 30.5\ngini = 0.5\nsamples = 18\nvalue = [9, 9]"] ;
805 -> 806 ;
807 [label="Age <= 24.5\ngini = 0.444\nsamples = 12\nvalue = [4, 8]"] ;
806 -> 807 ;
808 [label="gini = 0.0\nsamples = 2\nvalue = [2, 0]"] ;
807 -> 808 ;
809 [label="Sales <= 44.55\ngini = 0.32\nsamples = 10\nvalue = [2, 8]"] ;
807 -> 809 ;
810 [label="Age <= 29.5\ngini = 0.5\nsamples = 2\nvalue = [1, 1]"] ;
809 -> 810 ;
811 [label="gini = 0.0\nsamples = 1\nvalue = [1, 0]"] ;
810 -> 811 ;
812 [label="gini = 0.0\nsamples = 1\nvalue = [0, 1]"] ;
810 -> 812 ;
813 [label="Sales <= 108.0\ngini = 0.219\nsamples = 8\nvalue = [1, 7]"] ;
809 -> 813 ;
814 [label="gini = 0.0\nsamples = 5\nvalue = [0, 5]"] ;
813 -> 814 ;
815 [label="Duration <= 58.0\ngini = 0.444\nsamples = 3\nvalue = [1, 2]"] ;
813 -> 815 ;
816 [label="gini = 0.0\nsamples = 1\nvalue = [0, 1]"] ;
815 -> 816 ;
817 [label="Duration <= 97.5\ngini = 0.5\nsamples = 2\nvalue = [1, 1]"] ;
815 -> 817 ;
818 [label="gini = 0.0\nsamples = 1\nvalue = [1, 0]"] ;
817 -> 818 ;
819 [label="gini = 0.0\nsamples = 1\nvalue = [0, 1]"] ;
817 -> 819 ;
820 [label="Duration <= 50.5\ngini = 0.278\nsamples = 6\nvalue = [5, 1]"] ;
806 -> 820 ;
821 [label="gini = 0.0\nsamples = 4\nvalue = [4, 0]"] ;
820 -> 821 ;
822 [label="Sales <= 44.55\ngini = 0.5\nsamples = 2\nvalue = [1, 1]"] ;
820 -> 822 ;
823 [label="gini = 0.0\nsamples = 1\nvalue = [1, 0]"] ;
822 -> 823 ;
824 [label="gini = 0.0\nsamples = 1\nvalue = [0, 1]"] ;
822 -> 824 ;
825 [label="Age <= 29.5\ngini = 0.42\nsamples = 20\nvalue = [14, 6]"] ;
805 -> 825 ;
826 [label="Duration <= 24.0\ngini = 0.219\nsamples = 8\nvalue = [7, 1]"] ;
825 -> 826 ;
827 [label="gini = 0.0\nsamples = 1\nvalue = [0, 1]"] ;
826 -> 827 ;
828 [label="gini = 0.0\nsamples = 7\nvalue = [7, 0]"] ;
826 -> 828 ;
829 [label="Duration <= 139.0\ngini = 0.486\nsamples = 12\nvalue = [7, 5]"] ;
825 -> 829 ;
830 [label="Commision <= 62.37\ngini = 0.5\nsamples = 10\nvalue = [5, 5]"] ;
829 -> 830 ;
831 [label="Duration <= 14.5\ngini = 0.444\nsamples = 6\nvalue = [2, 4]"] ;
830 -> 831 ;
832 [label="gini = 0.0\nsamples = 1\nvalue = [1, 0]"] ;
831 -> 832 ;
833 [label="Duration <= 74.0\ngini = 0.32\nsamples = 5\nvalue = [1, 4]"] ;
831 -> 833 ;
834 [label="gini = 0.0\nsamples = 3\nvalue = [0, 3]"] ;
833 -> 834 ;
835 [label="Commision <= 47.52\ngini = 0.5\nsamples = 2\nvalue = [1, 1]"] ;
833 -> 835 ;
836 [label="gini = 0.0\nsamples = 1\nvalue = [1, 0]"] ;
835 -> 836 ;
837 [label="gini = 0.0\nsamples = 1\nvalue = [0, 1]"] ;
835 -> 837 ;
838 [label="Duration <= 46.0\ngini = 0.375\nsamples = 4\nvalue = [3, 1]"] ;
830 -> 838 ;
839 [label="gini = 0.0\nsamples = 2\nvalue = [2, 0]"] ;
838 -> 839 ;
840 [label="Age <= 31.5\ngini = 0.5\nsamples = 2\nvalue = [1, 1]"] ;
838 -> 840 ;
841 [label="gini = 0.0\nsamples = 1\nvalue = [1, 0]"] ;
840 -> 841 ;
842 [label="gini = 0.0\nsamples = 1\nvalue = [0, 1]"] ;
840 -> 842 ;
843 [label="gini = 0.0\nsamples = 2\nvalue = [2, 0]"] ;
829 -> 843 ;
844 [label="Sales <= 99.0\ngini = 0.496\nsamples = 22\nvalue = [10, 12]"] ;
778 -> 844 ;
845 [label="Duration <= 37.0\ngini = 0.469\nsamples = 16\nvalue = [10, 6]"] ;
844 -> 845 ;
846 [label="Sales <= 54.45\ngini = 0.245\nsamples = 7\nvalue = [6, 1]"] ;
845 -> 846 ;
847 [label="gini = 0.0\nsamples = 4\nvalue = [4, 0]"] ;
846 -> 847 ;
848 [label="Sales <= 64.35\ngini = 0.444\nsamples = 3\nvalue = [2, 1]"] ;
846 -> 848 ;
849 [label="gini = 0.0\nsamples = 1\nvalue = [0, 1]"] ;
848 -> 849 ;
850 [label="gini = 0.0\nsamples = 2\nvalue = [2, 0]"] ;
848 -> 850 ;
851 [label="Sales <= 79.2\ngini = 0.494\nsamples = 9\nvalue = [4, 5]"] ;
845 -> 851 ;
852 [label="Duration <= 115.0\ngini = 0.408\nsamples = 7\nvalue = [2, 5]"] ;
851 -> 852 ;
853 [label="Duration <= 57.0\ngini = 0.278\nsamples = 6\nvalue = [1, 5]"] ;
852 -> 853 ;
854 [label="Duration <= 55.5\ngini = 0.444\nsamples = 3\nvalue = [1, 2]"] ;
853 -> 854 ;
855 [label="gini = 0.0\nsamples = 2\nvalue = [0, 2]"] ;
854 -> 855 ;
856 [label="gini = 0.0\nsamples = 1\nvalue = [1, 0]"] ;
854 -> 856 ;
857 [label="gini = 0.0\nsamples = 3\nvalue = [0, 3]"] ;
853 -> 857 ;
858 [label="gini = 0.0\nsamples = 1\nvalue = [1, 0]"] ;
852 -> 858 ;
859 [label="gini = 0.0\nsamples = 2\nvalue = [2, 0]"] ;
851 -> 859 ;
860 [label="gini = 0.0\nsamples = 6\nvalue = [0, 6]"] ;
844 -> 860 ;
861 [label="Duration <= 134.0\ngini = 0.384\nsamples = 309\nvalue = [229, 80]"] ;
775 -> 861 ;
862 [label="Duration <= 29.5\ngini = 0.395\nsamples = 288\nvalue = [210, 78]"] ;
861 -> 862 ;
863 [label="Commision <= 56.43\ngini = 0.337\nsamples = 149\nvalue = [117, 32]"] ;
862 -> 863 ;
864 [label="Sales <= 43.5\ngini = 0.322\nsamples = 144\nvalue = [115, 29]"] ;
863 -> 864 ;
865 [label="Age <= 56.0\ngini = 0.198\nsamples = 45\nvalue = [40, 5]"] ;
864 -> 865 ;
866 [label="Duration <= 18.0\ngini = 0.169\nsamples = 43\nvalue = [39, 4]"] ;
865 -> 866 ;
867 [label="Sales <= 39.3\ngini = 0.067\nsamples = 29\nvalue = [28, 1]"] ;
866 -> 867 ;
868 [label="Sales <= 38.0\ngini = 0.165\nsamples = 11\nvalue = [10, 1]"] ;
867 -> 868 ;
869 [label="gini = 0.0\nsamples = 9\nvalue = [9, 0]"] ;
868 -> 869 ;
870 [label="Duration <= 11.5\ngini = 0.5\nsamples = 2\nvalue = [1, 1]"] ;
868 -> 870 ;
871 [label="gini = 0.0\nsamples = 1\nvalue = [0, 1]"] ;
870 -> 871 ;
872 [label="gini = 0.0\nsamples = 1\nvalue = [1, 0]"] ;
870 -> 872 ;
873 [label="gini = 0.0\nsamples = 18\nvalue = [18, 0]"] ;
867 -> 873 ;
874 [label="Age <= 47.5\ngini = 0.337\nsamples = 14\nvalue = [11, 3]"] ;
866 -> 874 ;
875 [label="Sales <= 36.5\ngini = 0.26\nsamples = 13\nvalue = [11, 2]"] ;
874 -> 875 ;
876 [label="Sales <= 34.0\ngini = 0.5\nsamples = 4\nvalue = [2, 2]"] ;
875 -> 876 ;
877 [label="Duration <= 25.5\ngini = 0.444\nsamples = 3\nvalue = [2, 1]"] ;
876 -> 877 ;
878 [label="gini = 0.0\nsamples = 1\nvalue = [1, 0]"] ;
877 -> 878 ;
879 [label="Age <= 40.5\ngini = 0.5\nsamples = 2\nvalue = [1, 1]"] ;
877 -> 879 ;
880 [label="gini = 0.0\nsamples = 1\nvalue = [0, 1]"] ;
879 -> 880 ;
881 [label="gini = 0.0\nsamples = 1\nvalue = [1, 0]"] ;
879 -> 881 ;
882 [label="gini = 0.0\nsamples = 1\nvalue = [0, 1]"] ;
876 -> 882 ;
883 [label="gini = 0.0\nsamples = 9\nvalue = [9, 0]"] ;
875 -> 883 ;
884 [label="gini = 0.0\nsamples = 1\nvalue = [0, 1]"] ;
874 -> 884 ;
885 [label="Destination <= 0.5\ngini = 0.5\nsamples = 2\nvalue = [1, 1]"] ;
865 -> 885 ;
886 [label="gini = 0.0\nsamples = 1\nvalue = [1, 0]"] ;
885 -> 886 ;
887 [label="gini = 0.0\nsamples = 1\nvalue = [0, 1]"] ;
885 -> 887 ;
888 [label="Age <= 34.5\ngini = 0.367\nsamples = 99\nvalue = [75, 24]"] ;
864 -> 888 ;
889 [label="gini = 0.0\nsamples = 1\nvalue = [0, 1]"] ;
888 -> 889 ;
890 [label="Duration <= 26.5\ngini = 0.359\nsamples = 98\nvalue = [75, 23]"] ;
888 -> 890 ;
891 [label="Commision <= 38.61\ngini = 0.38\nsamples = 90\nvalue = [67, 23]"] ;
890 -> 891 ;
892 [label="Age <= 54.0\ngini = 0.405\nsamples = 78\nvalue = [56, 22]"] ;
891 -> 892 ;
893 [label="Duration <= 25.5\ngini = 0.421\nsamples = 73\nvalue = [51, 22]"] ;
892 -> 893 ;
894 [label="Duration <= 2.5\ngini = 0.413\nsamples = 72\nvalue = [51, 21]"] ;
893 -> 894 ;
895 [label="gini = 0.0\nsamples = 4\nvalue = [4, 0]"] ;
894 -> 895 ;
896 [label="Duration <= 4.5\ngini = 0.427\nsamples = 68\nvalue = [47, 21]"] ;
894 -> 896 ;
897 [label="gini = 0.0\nsamples = 2\nvalue = [0, 2]"] ;
896 -> 897 ;
898 [label="Sales <= 75.5\ngini = 0.41\nsamples = 66\nvalue = [47, 19]"] ;
896 -> 898 ;
899 [label="Duration <= 7.5\ngini = 0.449\nsamples = 44\nvalue = [29, 15]"] ;
898 -> 899 ;
900 [label="Sales <= 45.0\ngini = 0.494\nsamples = 9\nvalue = [4, 5]"] ;
899 -> 900 ;
901 [label="gini = 0.0\nsamples = 1\nvalue = [1, 0]"] ;
900 -> 901 ;
902 [label="Sales <= 51.0\ngini = 0.469\nsamples = 8\nvalue = [3, 5]"] ;
900 -> 902 ;
903 [label="gini = 0.0\nsamples = 1\nvalue = [0, 1]"] ;
902 -> 903 ;
904 [label="Duration <= 5.5\ngini = 0.49\nsamples = 7\nvalue = [3, 4]"] ;
902 -> 904 ;
905 [label="gini = 0.0\nsamples = 1\nvalue = [1, 0]"] ;
904 -> 905 ;
906 [label="Sales <= 57.7\ngini = 0.444\nsamples = 6\nvalue = [2, 4]"] ;
904 -> 906 ;
907 [label="gini = 0.0\nsamples = 1\nvalue = [1, 0]"] ;
906 -> 907 ;
908 [label="Agency_Code <= 1.5\ngini = 0.32\nsamples = 5\nvalue = [1, 4]"] ;
906 -> 908 ;
909 [label="Age <= 42.5\ngini = 0.444\nsamples = 3\nvalue = [1, 2]"] ;
908 -> 909 ;
910 [label="gini = 0.0\nsamples = 1\nvalue = [1, 0]"] ;
909 -> 910 ;
911 [label="gini = 0.0\nsamples = 2\nvalue = [0, 2]"] ;
909 -> 911 ;
912 [label="gini = 0.0\nsamples = 2\nvalue = [0, 2]"] ;
908 -> 912 ;
913 [label="Age <= 46.0\ngini = 0.408\nsamples = 35\nvalue = [25, 10]"] ;
899 -> 913 ;
914 [label="Duration <= 24.0\ngini = 0.389\nsamples = 34\nvalue = [25, 9]"] ;
913 -> 914 ;
915 [label="Sales <= 65.5\ngini = 0.367\nsamples = 33\nvalue = [25, 8]"] ;
914 -> 915 ;
916 [label="Sales <= 49.75\ngini = 0.302\nsamples = 27\nvalue = [22, 5]"] ;
915 -> 916 ;
917 [label="Duration <= 12.0\ngini = 0.463\nsamples = 11\nvalue = [7, 4]"] ;
916 -> 917 ;
918 [label="Commision <= 14.85\ngini = 0.278\nsamples = 6\nvalue = [5, 1]"] ;
917 -> 918 ;
919 [label="gini = 0.0\nsamples = 5\nvalue = [5, 0]"] ;
918 -> 919 ;
920 [label="gini = 0.0\nsamples = 1\nvalue = [0, 1]"] ;
918 -> 920 ;
921 [label="Duration <= 20.5\ngini = 0.48\nsamples = 5\nvalue = [2, 3]"] ;
917 -> 921 ;
922 [label="gini = 0.0\nsamples = 3\nvalue = [0, 3]"] ;
921 -> 922 ;
923 [label="gini = 0.0\nsamples = 2\nvalue = [2, 0]"] ;
921 -> 923 ;
924 [label="Duration <= 11.0\ngini = 0.117\nsamples = 16\nvalue = [15, 1]"] ;
916 -> 924 ;
925 [label="Sales <= 58.0\ngini = 0.278\nsamples = 6\nvalue = [5, 1]"] ;
924 -> 925 ;
926 [label="Sales <= 53.0\ngini = 0.5\nsamples = 2\nvalue = [1, 1]"] ;
925 -> 926 ;
927 [label="gini = 0.0\nsamples = 1\nvalue = [1, 0]"] ;
926 -> 927 ;
928 [label="gini = 0.0\nsamples = 1\nvalue = [0, 1]"] ;
926 -> 928 ;
929 [label="gini = 0.0\nsamples = 4\nvalue = [4, 0]"] ;
925 -> 929 ;
930 [label="gini = 0.0\nsamples = 10\nvalue = [10, 0]"] ;
924 -> 930 ;
931 [label="Duration <= 18.5\ngini = 0.5\nsamples = 6\nvalue = [3, 3]"] ;
915 -> 931 ;
932 [label="gini = 0.0\nsamples = 2\nvalue = [0, 2]"] ;
931 -> 932 ;
933 [label="Duration <= 19.5\ngini = 0.375\nsamples = 4\nvalue = [3, 1]"] ;
931 -> 933 ;
934 [label="gini = 0.0\nsamples = 3\nvalue = [3, 0]"] ;
933 -> 934 ;
935 [label="gini = 0.0\nsamples = 1\nvalue = [0, 1]"] ;
933 -> 935 ;
936 [label="gini = 0.0\nsamples = 1\nvalue = [0, 1]"] ;
914 -> 936 ;
937 [label="gini = 0.0\nsamples = 1\nvalue = [0, 1]"] ;
913 -> 937 ;
938 [label="Agency_Code <= 1.5\ngini = 0.298\nsamples = 22\nvalue = [18, 4]"] ;
898 -> 938 ;
939 [label="gini = 0.0\nsamples = 1\nvalue = [0, 1]"] ;
938 -> 939 ;
940 [label="Duration <= 8.5\ngini = 0.245\nsamples = 21\nvalue = [18, 3]"] ;
938 -> 940 ;
941 [label="gini = 0.0\nsamples = 6\nvalue = [6, 0]"] ;
940 -> 941 ;
942 [label="Sales <= 86.0\ngini = 0.32\nsamples = 15\nvalue = [12, 3]"] ;
940 -> 942 ;
943 [label="gini = 0.0\nsamples = 4\nvalue = [4, 0]"] ;
942 -> 943 ;
944 [label="Sales <= 103.0\ngini = 0.397\nsamples = 11\nvalue = [8, 3]"] ;
942 -> 944 ;
945 [label="Duration <= 19.5\ngini = 0.444\nsamples = 3\nvalue = [1, 2]"] ;
944 -> 945 ;
946 [label="gini = 0.0\nsamples = 2\nvalue = [0, 2]"] ;
945 -> 946 ;
947 [label="gini = 0.0\nsamples = 1\nvalue = [1, 0]"] ;
945 -> 947 ;
948 [label="Age <= 39.0\ngini = 0.219\nsamples = 8\nvalue = [7, 1]"] ;
944 -> 948 ;
949 [label="gini = 0.0\nsamples = 6\nvalue = [6, 0]"] ;
948 -> 949 ;
950 [label="Age <= 47.5\ngini = 0.5\nsamples = 2\nvalue = [1, 1]"] ;
948 -> 950 ;
951 [label="gini = 0.0\nsamples = 1\nvalue = [0, 1]"] ;
950 -> 951 ;
952 [label="gini = 0.0\nsamples = 1\nvalue = [1, 0]"] ;
950 -> 952 ;
953 [label="gini = 0.0\nsamples = 1\nvalue = [0, 1]"] ;
893 -> 953 ;
954 [label="gini = 0.0\nsamples = 5\nvalue = [5, 0]"] ;
892 -> 954 ;
955 [label="Destination <= 0.5\ngini = 0.153\nsamples = 12\nvalue = [11, 1]"] ;
891 -> 955 ;
956 [label="Age <= 53.5\ngini = 0.5\nsamples = 2\nvalue = [1, 1]"] ;
955 -> 956 ;
957 [label="gini = 0.0\nsamples = 1\nvalue = [1, 0]"] ;
956 -> 957 ;
958 [label="gini = 0.0\nsamples = 1\nvalue = [0, 1]"] ;
956 -> 958 ;
959 [label="gini = 0.0\nsamples = 10\nvalue = [10, 0]"] ;
955 -> 959 ;
960 [label="gini = 0.0\nsamples = 8\nvalue = [8, 0]"] ;
890 -> 960 ;
961 [label="Commision <= 68.31\ngini = 0.48\nsamples = 5\nvalue = [2, 3]"] ;
863 -> 961 ;
962 [label="gini = 0.0\nsamples = 2\nvalue = [0, 2]"] ;
961 -> 962 ;
963 [label="Destination <= 1.5\ngini = 0.444\nsamples = 3\nvalue = [2, 1]"] ;
961 -> 963 ;
964 [label="gini = 0.0\nsamples = 2\nvalue = [2, 0]"] ;
963 -> 964 ;
965 [label="gini = 0.0\nsamples = 1\nvalue = [0, 1]"] ;
963 -> 965 ;
966 [label="Duration <= 37.0\ngini = 0.443\nsamples = 139\nvalue = [93, 46]"] ;
862 -> 966 ;
967 [label="Duration <= 34.5\ngini = 0.499\nsamples = 21\nvalue = [10, 11]"] ;
966 -> 967 ;
968 [label="Commision <= 50.49\ngini = 0.469\nsamples = 16\nvalue = [10, 6]"] ;
967 -> 968 ;
969 [label="Sales <= 36.3\ngini = 0.355\nsamples = 13\nvalue = [10, 3]"] ;
968 -> 969 ;
970 [label="gini = 0.0\nsamples = 1\nvalue = [0, 1]"] ;
969 -> 970 ;
971 [label="Sales <= 89.0\ngini = 0.278\nsamples = 12\nvalue = [10, 2]"] ;
969 -> 971 ;
972 [label="gini = 0.0\nsamples = 8\nvalue = [8, 0]"] ;
971 -> 972 ;
973 [label="Commision <= 17.82\ngini = 0.5\nsamples = 4\nvalue = [2, 2]"] ;
971 -> 973 ;
974 [label="Duration <= 30.5\ngini = 0.444\nsamples = 3\nvalue = [1, 2]"] ;
973 -> 974 ;
975 [label="gini = 0.0\nsamples = 1\nvalue = [1, 0]"] ;
974 -> 975 ;
976 [label="gini = 0.0\nsamples = 2\nvalue = [0, 2]"] ;
974 -> 976 ;
977 [label="gini = 0.0\nsamples = 1\nvalue = [1, 0]"] ;
973 -> 977 ;
978 [label="gini = 0.0\nsamples = 3\nvalue = [0, 3]"] ;
968 -> 978 ;
979 [label="gini = 0.0\nsamples = 5\nvalue = [0, 5]"] ;
967 -> 979 ;
980 [label="Commision <= 56.43\ngini = 0.417\nsamples = 118\nvalue = [83, 35]"] ;
966 -> 980 ;
981 [label="Age <= 49.5\ngini = 0.438\nsamples = 108\nvalue = [73, 35]"] ;
980 -> 981 ;
982 [label="Duration <= 106.0\ngini = 0.415\nsamples = 92\nvalue = [65, 27]"] ;
981 -> 982 ;
983 [label="Duration <= 60.5\ngini = 0.436\nsamples = 81\nvalue = [55, 26]"] ;
982 -> 983 ;
984 [label="Destination <= 0.5\ngini = 0.37\nsamples = 49\nvalue = [37, 12]"] ;
983 -> 984 ;
985 [label="Duration <= 44.0\ngini = 0.159\nsamples = 23\nvalue = [21, 2]"] ;
984 -> 985 ;
986 [label="Sales <= 34.5\ngini = 0.346\nsamples = 9\nvalue = [7, 2]"] ;
985 -> 986 ;
987 [label="gini = 0.0\nsamples = 1\nvalue = [0, 1]"] ;
986 -> 987 ;
988 [label="Sales <= 53.5\ngini = 0.219\nsamples = 8\nvalue = [7, 1]"] ;
986 -> 988 ;
989 [label="gini = 0.0\nsamples = 4\nvalue = [4, 0]"] ;
988 -> 989 ;
990 [label="Sales <= 59.0\ngini = 0.375\nsamples = 4\nvalue = [3, 1]"] ;
988 -> 990 ;
991 [label="gini = 0.0\nsamples = 1\nvalue = [0, 1]"] ;
990 -> 991 ;
992 [label="gini = 0.0\nsamples = 3\nvalue = [3, 0]"] ;
990 -> 992 ;
993 [label="gini = 0.0\nsamples = 14\nvalue = [14, 0]"] ;
985 -> 993 ;
994 [label="Duration <= 56.5\ngini = 0.473\nsamples = 26\nvalue = [16, 10]"] ;
984 -> 994 ;
995 [label="Age <= 37.5\ngini = 0.491\nsamples = 23\nvalue = [13, 10]"] ;
994 -> 995 ;
996 [label="Commision <= 32.67\ngini = 0.415\nsamples = 17\nvalue = [12, 5]"] ;
995 -> 996 ;
997 [label="Duration <= 54.5\ngini = 0.278\nsamples = 12\nvalue = [10, 2]"] ;
996 -> 997 ;
998 [label="Sales <= 71.5\ngini = 0.165\nsamples = 11\nvalue = [10, 1]"] ;
997 -> 998 ;
999 [label="Sales <= 63.5\ngini = 0.444\nsamples = 3\nvalue = [2, 1]"] ;
998 -> 999 ;
1000 [label="gini = 0.0\nsamples = 2\nvalue = [2, 0]"] ;
999 -> 1000 ;
1001 [label="gini = 0.0\nsamples = 1\nvalue = [0, 1]"] ;
999 -> 1001 ;
1002 [label="gini = 0.0\nsamples = 8\nvalue = [8, 0]"] ;
998 -> 1002 ;
1003 [label="gini = 0.0\nsamples = 1\nvalue = [0, 1]"] ;
997 -> 1003 ;
1004 [label="Age <= 34.5\ngini = 0.48\nsamples = 5\nvalue = [2, 3]"] ;
996 -> 1004 ;
1005 [label="gini = 0.0\nsamples = 1\nvalue = [1, 0]"] ;
1004 -> 1005 ;
1006 [label="Duration <= 38.5\ngini = 0.375\nsamples = 4\nvalue = [1, 3]"] ;
1004 -> 1006 ;
1007 [label="gini = 0.0\nsamples = 1\nvalue = [1, 0]"] ;
1006 -> 1007 ;
1008 [label="gini = 0.0\nsamples = 3\nvalue = [0, 3]"] ;
1006 -> 1008 ;
1009 [label="Duration <= 52.0\ngini = 0.278\nsamples = 6\nvalue = [1, 5]"] ;
995 -> 1009 ;
1010 [label="gini = 0.0\nsamples = 5\nvalue = [0, 5]"] ;
1009 -> 1010 ;
1011 [label="gini = 0.0\nsamples = 1\nvalue = [1, 0]"] ;
1009 -> 1011 ;
1012 [label="gini = 0.0\nsamples = 3\nvalue = [3, 0]"] ;
994 -> 1012 ;
1013 [label="Sales <= 74.25\ngini = 0.492\nsamples = 32\nvalue = [18, 14]"] ;
983 -> 1013 ;
1014 [label="Age <= 42.0\ngini = 0.444\nsamples = 18\nvalue = [6, 12]"] ;
1013 -> 1014 ;
1015 [label="Duration <= 76.0\ngini = 0.415\nsamples = 17\nvalue = [5, 12]"] ;
1014 -> 1015 ;
1016 [label="Sales <= 34.5\ngini = 0.298\nsamples = 11\nvalue = [2, 9]"] ;
1015 -> 1016 ;
1017 [label="gini = 0.5\nsamples = 2\nvalue = [1, 1]"] ;
1016 -> 1017 ;
1018 [label="Sales <= 58.5\ngini = 0.198\nsamples = 9\nvalue = [1, 8]"] ;
1016 -> 1018 ;
1019 [label="gini = 0.0\nsamples = 6\nvalue = [0, 6]"] ;
1018 -> 1019 ;
1020 [label="Sales <= 61.5\ngini = 0.444\nsamples = 3\nvalue = [1, 2]"] ;
1018 -> 1020 ;
1021 [label="gini = 0.0\nsamples = 1\nvalue = [1, 0]"] ;
1020 -> 1021 ;
1022 [label="gini = 0.0\nsamples = 2\nvalue = [0, 2]"] ;
1020 -> 1022 ;
1023 [label="Duration <= 90.5\ngini = 0.5\nsamples = 6\nvalue = [3, 3]"] ;
1015 -> 1023 ;
1024 [label="Duration <= 81.0\ngini = 0.375\nsamples = 4\nvalue = [3, 1]"] ;
1023 -> 1024 ;
1025 [label="Duration <= 78.5\ngini = 0.5\nsamples = 2\nvalue = [1, 1]"] ;
1024 -> 1025 ;
1026 [label="gini = 0.0\nsamples = 1\nvalue = [1, 0]"] ;
1025 -> 1026 ;
1027 [label="gini = 0.0\nsamples = 1\nvalue = [0, 1]"] ;
1025 -> 1027 ;
1028 [label="gini = 0.0\nsamples = 2\nvalue = [2, 0]"] ;
1024 -> 1028 ;
1029 [label="gini = 0.0\nsamples = 2\nvalue = [0, 2]"] ;
1023 -> 1029 ;
1030 [label="gini = 0.0\nsamples = 1\nvalue = [1, 0]"] ;
1014 -> 1030 ;
1031 [label="Destination <= 1.5\ngini = 0.245\nsamples = 14\nvalue = [12, 2]"] ;
1013 -> 1031 ;
1032 [label="gini = 0.0\nsamples = 10\nvalue = [10, 0]"] ;
1031 -> 1032 ;
1033 [label="Duration <= 72.0\ngini = 0.5\nsamples = 4\nvalue = [2, 2]"] ;
1031 -> 1033 ;
1034 [label="gini = 0.0\nsamples = 2\nvalue = [2, 0]"] ;
1033 -> 1034 ;
1035 [label="gini = 0.0\nsamples = 2\nvalue = [0, 2]"] ;
1033 -> 1035 ;
1036 [label="Duration <= 128.0\ngini = 0.165\nsamples = 11\nvalue = [10, 1]"] ;
982 -> 1036 ;
1037 [label="gini = 0.0\nsamples = 9\nvalue = [9, 0]"] ;
1036 -> 1037 ;
1038 [label="Sales <= 51.3\ngini = 0.5\nsamples = 2\nvalue = [1, 1]"] ;
1036 -> 1038 ;
1039 [label="gini = 0.0\nsamples = 1\nvalue = [0, 1]"] ;
1038 -> 1039 ;
1040 [label="gini = 0.0\nsamples = 1\nvalue = [1, 0]"] ;
1038 -> 1040 ;
1041 [label="Age <= 52.0\ngini = 0.5\nsamples = 16\nvalue = [8, 8]"] ;
981 -> 1041 ;
1042 [label="gini = 0.0\nsamples = 4\nvalue = [0, 4]"] ;
1041 -> 1042 ;
1043 [label="Sales <= 89.55\ngini = 0.444\nsamples = 12\nvalue = [8, 4]"] ;
1041 -> 1043 ;
1044 [label="Duration <= 79.5\ngini = 0.219\nsamples = 8\nvalue = [7, 1]"] ;
1043 -> 1044 ;
1045 [label="gini = 0.0\nsamples = 6\nvalue = [6, 0]"] ;
1044 -> 1045 ;
1046 [label="Commision <= 38.61\ngini = 0.5\nsamples = 2\nvalue = [1, 1]"] ;
1044 -> 1046 ;
1047 [label="gini = 0.0\nsamples = 1\nvalue = [0, 1]"] ;
1046 -> 1047 ;
1048 [label="gini = 0.0\nsamples = 1\nvalue = [1, 0]"] ;
1046 -> 1048 ;
1049 [label="Age <= 72.5\ngini = 0.375\nsamples = 4\nvalue = [1, 3]"] ;
1043 -> 1049 ;
1050 [label="gini = 0.0\nsamples = 3\nvalue = [0, 3]"] ;
1049 -> 1050 ;
1051 [label="gini = 0.0\nsamples = 1\nvalue = [1, 0]"] ;
1049 -> 1051 ;
1052 [label="gini = 0.0\nsamples = 10\nvalue = [10, 0]"] ;
980 -> 1052 ;
1053 [label="Sales <= 37.5\ngini = 0.172\nsamples = 21\nvalue = [19, 2]"] ;
861 -> 1053 ;
1054 [label="gini = 0.0\nsamples = 1\nvalue = [0, 1]"] ;
1053 -> 1054 ;
1055 [label="Duration <= 291.5\ngini = 0.095\nsamples = 20\nvalue = [19, 1]"] ;
1053 -> 1055 ;
1056 [label="gini = 0.0\nsamples = 16\nvalue = [16, 0]"] ;
1055 -> 1056 ;
1057 [label="Duration <= 318.5\ngini = 0.375\nsamples = 4\nvalue = [3, 1]"] ;
1055 -> 1057 ;
1058 [label="gini = 0.0\nsamples = 1\nvalue = [0, 1]"] ;
1057 -> 1058 ;
1059 [label="gini = 0.0\nsamples = 3\nvalue = [3, 0]"] ;
1057 -> 1059 ;
1060 [label="Commision <= 21.435\ngini = 0.48\nsamples = 35\nvalue = [14, 21]"] ;
770 -> 1060 ;
1061 [label="gini = 0.0\nsamples = 4\nvalue = [4, 0]"] ;
1060 -> 1061 ;
1062 [label="Age <= 63.5\ngini = 0.437\nsamples = 31\nvalue = [10, 21]"] ;
1060 -> 1062 ;
1063 [label="Duration <= 419.0\ngini = 0.4\nsamples = 29\nvalue = [8, 21]"] ;
1062 -> 1063 ;
1064 [label="Age <= 24.0\ngini = 0.346\nsamples = 27\nvalue = [6, 21]"] ;
1063 -> 1064 ;
1065 [label="gini = 0.0\nsamples = 1\nvalue = [1, 0]"] ;
1064 -> 1065 ;
1066 [label="Duration <= 151.5\ngini = 0.311\nsamples = 26\nvalue = [5, 21]"] ;
1064 -> 1066 ;
1067 [label="gini = 0.0\nsamples = 10\nvalue = [0, 10]"] ;
1066 -> 1067 ;
1068 [label="Duration <= 364.5\ngini = 0.43\nsamples = 16\nvalue = [5, 11]"] ;
1066 -> 1068 ;
1069 [label="Age <= 29.0\ngini = 0.375\nsamples = 4\nvalue = [3, 1]"] ;
1068 -> 1069 ;
1070 [label="gini = 0.0\nsamples = 1\nvalue = [0, 1]"] ;
1069 -> 1070 ;
1071 [label="gini = 0.0\nsamples = 3\nvalue = [3, 0]"] ;
1069 -> 1071 ;
1072 [label="Age <= 29.0\ngini = 0.278\nsamples = 12\nvalue = [2, 10]"] ;
1068 -> 1072 ;
1073 [label="Duration <= 368.5\ngini = 0.5\nsamples = 2\nvalue = [1, 1]"] ;
1072 -> 1073 ;
1074 [label="gini = 0.0\nsamples = 1\nvalue = [0, 1]"] ;
1073 -> 1074 ;
1075 [label="gini = 0.0\nsamples = 1\nvalue = [1, 0]"] ;
1073 -> 1075 ;
1076 [label="Sales <= 321.825\ngini = 0.18\nsamples = 10\nvalue = [1, 9]"] ;
1072 -> 1076 ;
1077 [label="gini = 0.0\nsamples = 7\nvalue = [0, 7]"] ;
1076 -> 1077 ;
1078 [label="Age <= 39.5\ngini = 0.444\nsamples = 3\nvalue = [1, 2]"] ;
1076 -> 1078 ;
1079 [label="gini = 0.0\nsamples = 2\nvalue = [0, 2]"] ;
1078 -> 1079 ;
1080 [label="gini = 0.0\nsamples = 1\nvalue = [1, 0]"] ;
1078 -> 1080 ;
1081 [label="gini = 0.0\nsamples = 2\nvalue = [2, 0]"] ;
1063 -> 1081 ;
1082 [label="gini = 0.0\nsamples = 2\nvalue = [2, 0]"] ;
1062 -> 1082 ;
}